{"learner":{"attributes":{"scikit_learn":"{\"_estimator_type\": \"classifier\"}"},"feature_names":[],"feature_types":[],"gradient_booster":{"model":{"gbtree_model_param":{"num_parallel_tree":"1","num_trees":"400"},"iteration_indptr":[0,4,8,12,16,20,24,28,32,36,40,44,48,52,56,60,64,68,72,76,80,84,88,92,96,100,104,108,112,116,120,124,128,132,136,140,144,148,152,156,160,164,168,172,176,180,184,188,192,196,200,204,208,212,216,220,224,228,232,236,240,244,248,252,256,260,264,268,272,276,280,284,288,292,296,300,304,308,312,316,320,324,328,332,336,340,344,348,352,356,360,364,368,372,376,380,384,388,392,396,400],"tree_info":[0,1,2,3,0,1,2,3,0,1,2,3,0,1,2,3,0,1,2,3,0,1,2,3,0,1,2,3,0,1,2,3,0,1,2,3,0,1,2,3,0,1,2,3,0,1,2,3,0,1,2,3,0,1,2,3,0,1,2,3,0,1,2,3,0,1,2,3,0,1,2,3,0,1,2,3,0,1,2,3,0,1,2,3,0,1,2,3,0,1,2,3,0,1,2,3,0,1,2,3,0,1,2,3,0,1,2,3,0,1,2,3,0,1,2,3,0,1,2,3,0,1,2,3,0,1,2,3,0,1,2,3,0,1,2,3,0,1,2,3,0,1,2,3,0,1,2,3,0,1,2,3,0,1,2,3,0,1,2,3,0,1,2,3,0,1,2,3,0,1,2,3,0,1,2,3,0,1,2,3,0,1,2,3,0,1,2,3,0,1,2,3,0,1,2,3,0,1,2,3,0,1,2,3,0,1,2,3,0,1,2,3,0,1,2,3,0,1,2,3,0,1,2,3,0,1,2,3,0,1,2,3,0,1,2,3,0,1,2,3,0,1,2,3,0,1,2,3,0,1,2,3,0,1,2,3,0,1,2,3,0,1,2,3,0,1,2,3,0,1,2,3,0,1,2,3,0,1,2,3,0,1,2,3,0,1,2,3,0,1,2,3,0,1,2,3,0,1,2,3,0,1,2,3,0,1,2,3,0,1,2,3,0,1,2,3,0,1,2,3,0,1,2,3,0,1,2,3,0,1,2,3,0,1,2,3,0,1,2,3,0,1,2,3,0,1,2,3,0,1,2,3,0,1,2,3,0,1,2,3,0,1,2,3,0,1,2,3,0,1,2,3,0,1,2,3,0,1,2,3,0,1,2,3,0,1,2,3,0,1,2,3,0,1,2,3,0,1,2,3],"trees":[{"base_weights":[-5.3683E-1,-5.7136244E-1,5.77927E-1,-5.868752E-1,-3.7074584E-1,1.2778407E0,1.6662231E-1,-5.465359E-1,-6.3526624E-1,-2.5299788E-1,-5.59156E-1,1.5173675E0,8.82283E-1,3.388777E-1,-2.9351535E-1,-5.587708E-1,-4.9326125E-1,-6.1964667E-1,-6.526921E-1,-3.1262124E-1,1.7883036E-1,-4.933508E-1,-6.2478715E-1,1.7156705E0,1.3461794E0,5.875371E-1,1.0708661E0,2.367473E-2,5.1131225E-1,-1.5802729E-1,-9.041591E-2,-5.1905084E-1,-5.6731325E-1,-4.4265497E-1,-5.6173956E-1,-5.8153397E-1,-6.277265E-1,-4.876325E-1,-1.9615598E-1,7.3135056E-2,-3.7372172E-1,-0E0,5.189341E-1,-5.6297314E-1,-4.0884882E-1,-1.8997882E-1,-1.5384616E-1,-0E0,5.248765E-1,8.8E-1,1.408987E0,7.513612E-1,-1.3740458E-1,1.1358289E0,2.9213482E-1,5.154639E-1,-3.0734206E-2,6.878097E-1,2.7522936E-1,7.5675674E-2,-4.171123E-1,-1.4921808E-1,-1.6792084E-1,-1.7221841E-1,-1.579084E-1,-1.623329E-1,-1.1280498E-1,-1.7012928E-1,-5.1583715E-2,-1.8608402E-1,-1.5491371E-1,-1.8426897E-1,-1.9226381E-1,-1.5622641E-1,-0E0,-8.9454554E-2,1.4953077E-1,-1.2892336E-1,-7.637416E-2,1.890411E-1,-2.2512235E-2,2.2886598E-1,-0E0,-1.7655799E-1,-1.2830958E-1,2.3076925E-2,-1.2869936E-1,5.660378E-2,-1.322034E-1,-1.3043478E-1,1.7647061E-1,3.1363636E-1,-7.5E-2,4.8306268E-1,3.8966295E-1,-2.6086958E-2,2.710921E-1,-9.532711E-2,1.5E-1,8.307693E-2,3.5671982E-1,2.425532E-1,-7.2000004E-2,2.7E-1,6.885246E-2,3.2307696E-2,-6.868966E-2,2.6084945E-1,1.0752394E-1,-2.0930234E-2,1.1193278E-1,-1.0588236E-1,6.0207617E-2,-1.6653994E-1,-2.5210086E-2],"categories":[],"categories_nodes":[],"categories_segments":[],"categories_sizes":[],"default_left":[0,0,0,0,0,0,0,0,0,0,0,0,0,0,0,0,0,0,0,0,0,0,0,0,0,0,0,0,0,0,0,0,0,0,0,0,0,0,0,0,0,0,0,0,0,0,0,0,0,0,0,0,0,0,0,0,0,0,0,0,0,0,0,0,0,0,0,0,0,0,0,0,0,0,0,0,0,0,0,0,0,0,0,0,0,0,0,0,0,0,0,0,0,0,0,0,0,0,0,0,0,0,0,0,0,0,0,0,0,0,0,0,0,0,0],"id":0,"left_children":[1,3,5,7,9,11,13,15,17,19,21,23,25,27,29,31,33,35,37,39,41,43,45,47,49,51,53,55,57,-1,59,61,63,65,67,69,71,73,-1,75,77,79,81,83,85,-1,87,89,-1,91,93,95,97,99,101,103,105,107,109,111,113,-1,-1,-1,-1,-1,-1,-1,-1,-1,-1,-1,-1,-1,-1,-1,-1,-1,-1,-1,-1,-1,-1,-1,-1,-1,-1,-1,-1,-1,-1,-1,-1,-1,-1,-1,-1,-1,-1,-1,-1,-1,-1,-1,-1,-1,-1,-1,-1,-1,-1,-1,-1,-1,-1],"loss_changes":[1.9078477E3,1.493623E2,4.2854514E2,8.673828E1,7.6451935E1,5.087854E1,7.454555E1,1.5587402E1,5.114258E0,5.4807007E1,5.4229126E0,9.2960205E0,1.1057388E1,3.7157784E1,1.2097208E1,6.4189453E0,1.5532471E1,2.9335938E0,1.5141602E0,4.4076523E1,1.5729798E1,3.6961365E0,2.5394287E0,9.005157E0,4.2683105E0,1.01090145E1,6.092911E0,6.514625E0,1.8227966E1,0E0,7.533221E0,2.817566E0,4.194336E0,1.7008179E1,3.9364624E0,4.444092E0,1.1730957E0,1.1427155E0,0E0,4.0635715E1,1.0660095E1,8.109545E0,1.1282803E1,1.0039444E0,3.019516E0,0E0,1.3603601E0,1.2787724E0,0E0,4.9354534E0,1.5449829E0,8.87104E0,2.041307E0,5.014923E0,3.2509875E0,2.4599805E0,6.0512705E0,1.47849045E1,6.467325E0,5.027364E0,2.1025314E0,0E0,0E0,0E0,0E0,0E0,0E0,0E0,0E0,0E0,0E0,0E0,0E0,0E0,0E0,0E0,0E0,0E0,0E0,0E0,0E0,0E0,0E0,0E0,0E0,0E0,0E0,0E0,0E0,0E0,0E0,0E0,0E0,0E0,0E0,0E0,0E0,0E0,0E0,0E0,0E0,0E0,0E0,0E0,0E0,0E0,0E0,0E0,0E0,0E0,0E0,0E0,0E0,0E0,0E0],"parents":[2147483647,0,0,1,1,2,2,3,3,4,4,5,5,6,6,7,7,8,8,9,9,10,10,11,11,12,12,13,13,14,14,15,15,16,16,17,17,18,18,19,19,20,20,21,21,22,22,23,23,24,24,25,25,26,26,27,27,28,28,30,30,31,31,32,32,33,33,34,34,35,35,36,36,37,37,39,39,40,40,41,41,42,42,43,43,44,44,46,46,47,47,49,49,50,50,51,51,52,52,53,53,54,54,55,55,56,56,57,57,58,58,59,59,60,60],"right_children":[2,4,6,8,10,12,14,16,18,20,22,24,26,28,30,32,34,36,38,40,42,44,46,48,50,52,54,56,58,-1,60,62,64,66,68,70,72,74,-1,76,78,80,82,84,86,-1,88,90,-1,92,94,96,98,100,102,104,106,108,110,112,114,-1,-1,-1,-1,-1,-1,-1,-1,-1,-1,-1,-1,-1,-1,-1,-1,-1,-1,-1,-1,-1,-1,-1,-1,-1,-1,-1,-1,-1,-1,-1,-1,-1,-1,-1,-1,-1,-1,-1,-1,-1,-1,-1,-1,-1,-1,-1,-1,-1,-1,-1,-1,-1,-1],"split_conditions":[1.9339657E1,3.1837275E0,5.951334E-1,8.0993676E-1,7.5487053E-1,1.6206862E-1,9.538034E-1,1.2251705E2,9.605931E-1,9.619156E0,9.4663733E-1,1.03407115E-1,3.6842686E1,4.9640713E1,4.9640713E1,2.0780958E-1,1.4254576E-1,-6.687728E-2,7.022318E1,4.7952984E-2,5.8827144E-1,6.5456357E0,2.9484064E2,6.0502827E-2,2.6558035E1,-2.4321964E-1,3.8392743E-1,7.5552505E1,4.0229583E-1,-1.5802729E-1,9.707555E-1,-5.2674776E-1,1.665469E0,7.5352944E-2,4.2879146E-1,1.5686388E2,4.6476343E-1,4.4131052E-1,-1.9615598E-1,5.0808698E-2,6.642471E-2,1.1874402E-1,7.785472E-3,4.6151486E-1,-6.06609E-1,-1.8997882E-1,9.6213126E-1,6.9254135E1,5.248765E-1,2.784637E-1,1E0,-2.775207E-1,3.523755E-1,2.7172863E-1,5.482572E0,1E0,1E0,1E0,1.2738559E2,5.441076E-1,2.096619E2,-1.4921808E-1,-1.6792084E-1,-1.7221841E-1,-1.579084E-1,-1.623329E-1,-1.1280498E-1,-1.7012928E-1,-5.1583715E-2,-1.8608402E-1,-1.5491371E-1,-1.8426897E-1,-1.9226381E-1,-1.5622641E-1,-0E0,-8.9454554E-2,1.4953077E-1,-1.2892336E-1,-7.637416E-2,1.890411E-1,-2.2512235E-2,2.2886598E-1,-0E0,-1.7655799E-1,-1.2830958E-1,2.3076925E-2,-1.2869936E-1,5.660378E-2,-1.322034E-1,-1.3043478E-1,1.7647061E-1,3.1363636E-1,-7.5E-2,4.8306268E-1,3.8966295E-1,-2.6086958E-2,2.710921E-1,-9.532711E-2,1.5E-1,8.307693E-2,3.5671982E-1,2.425532E-1,-7.2000004E-2,2.7E-1,6.885246E-2,3.2307696E-2,-6.868966E-2,2.6084945E-1,1.0752394E-1,-2.0930234E-2,1.1193278E-1,-1.0588236E-1,6.0207617E-2,-1.6653994E-1,-2.5210086E-2],"split_indices":[0,0,1,1,1,3,1,2,1,0,1,3,0,0,0,0,3,6,2,3,6,0,2,3,0,1,3,2,3,0,1,1,0,1,3,2,0,6,0,1,1,3,1,3,6,0,1,0,0,1,4,6,3,2,2,4,4,4,2,3,2,0,0,0,0,0,0,0,0,0,0,0,0,0,0,0,0,0,0,0,0,0,0,0,0,0,0,0,0,0,0,0,0,0,0,0,0,0,0,0,0,0,0,0,0,0,0,0,0,0,0,0,0,0,0],"split_type":[0,0,0,0,0,0,0,0,0,0,0,0,0,0,0,0,0,0,0,0,0,0,0,0,0,0,0,0,0,0,0,0,0,0,0,0,0,0,0,0,0,0,0,0,0,0,0,0,0,0,0,0,0,0,0,0,0,0,0,0,0,0,0,0,0,0,0,0,0,0,0,0,0,0,0,0,0,0,0,0,0,0,0,0,0,0,0,0,0,0,0,0,0,0,0,0,0,0,0,0,0,0,0,0,0,0,0,0,0,0,0,0,0,0,0],"sum_hessian":[4.9551E4,4.8062625E4,1.488375E3,4.4611125E4,3.4515E3,5.50125E2,9.3825E2,2.4336375E4,2.027475E4,2.1255E3,1.326E3,3.40875E2,2.0925E2,6.82875E2,2.55375E2,1.97835E4,4.552875E3,1.071075E4,9.564E3,1.867875E3,2.57625E2,6.66375E2,6.59625E2,1.5375E2,1.87125E2,8.325E1,1.26E2,2.41875E2,4.41E2,1.18125E2,1.3725E2,3.512625E3,1.6270875E4,2.622375E3,1.9305E3,1.88625E3,8.8245E3,6.975E1,9.49425E3,2.55375E2,1.6125E3,1.695E2,8.8125E1,3.6225E2,3.04125E2,6.47625E2,1.2E1,3E0,1.5075E2,2.4E1,1.63125E2,6.7875E1,1.5375E1,1.15875E2,1.0125E1,2.325E1,2.18625E2,2.5125E2,1.8975E2,9.15E1,4.575E1,2.301E3,1.211625E3,1.3957875E4,2.313E3,1.055625E3,1.56675E3,1.903875E3,2.6625E1,1.1775E3,7.0875E2,4.378875E3,4.445625E3,6.525E1,4.5E0,1.365E2,1.18875E2,1.095E3,5.175E2,1.725E1,1.5225E2,5.9625E1,2.85E1,3.01875E2,6.0375E1,1.2E1,2.92125E2,5.625E0,6.375E0,1.875E0,1.125E0,2.1E1,3E0,5.2875E1,1.1025E2,1.05E1,5.7375E1,1.2375E1,3E0,7.125E0,1.0875E2,4.875E0,5.25E0,9E0,1.425E1,1.29E2,8.9625E1,1.60875E2,9.0375E1,4.2E1,1.4775E2,2.025E1,7.125E1,3.1875E1,1.3875E1],"tree_param":{"num_deleted":"0","num_feature":"7","num_nodes":"115","size_leaf_vector":"1"}},{"base_weights":[4.900912E-1,-3.9066008E-1,1.5688806E0,-5.98676E-1,2.1844687E-1,1.1467555E0,1.8399779E0,-6.341173E-1,-3.681858E-1,-2.3768814E-1,4.128532E-1,-4.1637942E-2,1.2846164E0,2.6142743E-1,1.8581952E0,-6.4727044E-1,-5.0275856E-1,-2.4608381E-1,-4.3202248E-1,4.224436E-1,-5.1508677E-1,2.0661676E-1,8.8412887E-1,2.7168894E-1,-4.513668E-1,1.4590145E0,3.1051192E-1,6.0164083E-2,1.6455696E0,1.8950082E0,1.441136E0,-5.608487E-1,-1.9631572E-1,-5.8694416E-1,-4.4362485E-1,-3.5194746E-1,-1.0513219E-1,-5.5781406E-1,-3.4004366E-1,7.55138E-1,2.4565756E-1,-5.9032845E-1,-2.8921402E-1,2.0970222E-2,4.137339E-1,1.0099528E0,2.2824387E-1,3.4110684E-2,8.16E-1,1.032258E0,-5.7673776E-1,1.646463E0,1.1771536E0,7.9529023E-1,-1.9352071E-1,1.1232877E0,-1.0218978E-1,5.1780826E-1,1.20000005E-1,1.9096642E0,1.2659903E0,8.296786E-1,1.8151913E0,-1.6980204E-1,9.67742E-2,-1.773039E-1,1.4634146E-2,-1.0150446E-1,-1.5652776E-1,-1.076195E-1,1.0909092E-1,-5.5658627E-2,1.7432055E-2,-1.7193997E-1,-1.11482255E-1,-5.9715644E-2,-1.2543397E-1,2.8920865E-1,1.07178636E-1,-1.3267813E-2,8.6017706E-2,-1.7863122E-1,1.018868E-1,-2.6600985E-2,-1.423329E-1,7.590988E-2,-4.9177863E-2,2.6133057E-1,6.518106E-2,3.4909092E-2,3.3601356E-1,-8.8235304E-2,9.389728E-2,2.2921349E-1,-2.0673268E-2,1.3226838E-1,3.5316458E-1,1.255814E-1,3.8823533E-1,-1.166922E-1,-1.886776E-1,5.144382E-1,1.884692E-1,4.1654497E-1,1.1646981E-1,1.3344449E-1,4.0800002E-1,-1.3963135E-1,-9.614729E-3,4.4842106E-1,1.1186441E-1,-1.5902004E-1,8.108108E-2,5.2472305E-1,5.8444095E-1,3.231348E-1,5.0823534E-1,3.4364426E-1,9.274448E-2,4.7554418E-1,5.7137674E-1],"categories":[],"categories_nodes":[],"categories_segments":[],"categories_sizes":[],"default_left":[0,0,0,0,0,0,0,0,0,0,0,0,0,0,0,0,0,0,0,0,0,0,0,0,0,0,0,0,0,0,0,0,0,0,0,0,0,0,0,0,0,0,0,0,0,0,0,0,0,0,0,0,0,0,0,0,0,0,0,0,0,0,0,0,0,0,0,0,0,0,0,0,0,0,0,0,0,0,0,0,0,0,0,0,0,0,0,0,0,0,0,0,0,0,0,0,0,0,0,0,0,0,0,0,0,0,0,0,0,0,0,0,0,0,0,0,0,0,0,0,0],"id":1,"left_children":[1,3,5,7,9,11,13,15,17,19,21,23,25,27,29,31,33,35,37,39,41,43,45,47,49,51,53,55,57,59,61,63,-1,65,67,69,71,73,75,77,79,81,83,85,87,89,91,93,95,97,99,101,103,105,107,109,111,-1,-1,113,115,117,119,-1,-1,-1,-1,-1,-1,-1,-1,-1,-1,-1,-1,-1,-1,-1,-1,-1,-1,-1,-1,-1,-1,-1,-1,-1,-1,-1,-1,-1,-1,-1,-1,-1,-1,-1,-1,-1,-1,-1,-1,-1,-1,-1,-1,-1,-1,-1,-1,-1,-1,-1,-1,-1,-1,-1,-1,-1,-1],"loss_changes":[4.7082203E4,3.4567095E3,2.5466562E3,1.6588916E2,6.160051E2,1.4274688E3,3.8947656E2,3.0125977E1,2.1037476E1,3.804197E2,4.7318964E2,1.16514305E2,1.3258174E3,4.33242E1,2.0308984E2,9.481934E0,7.7476807E0,1.3894218E1,2.0405212E1,3.5978806E1,2.4682404E1,1.3030515E2,1.2209363E2,6.648933E1,7.374122E1,3.478916E2,2.9012924E2,2.378287E1,1.2888489E0,1.1111719E2,2.4814062E2,5.7663574E0,0E0,1.7376099E0,7.6296844E0,2.7167816E0,5.2849307E0,1.927124E0,1.126239E1,1.7348183E1,4.810383E0,5.409363E0,1.3604656E1,7.677093E1,1.4374915E2,1.22189575E2,1.0710988E1,2.7058483E1,2.065187E1,4.4396973E0,3.3148193E0,2.754297E2,4.409619E2,1.19159454E2,2.5566332E1,4.529604E0,1.9247393E1,0E0,0E0,7.092969E1,2.10896E1,6.8050446E1,1.0890869E1,0E0,0E0,0E0,0E0,0E0,0E0,0E0,0E0,0E0,0E0,0E0,0E0,0E0,0E0,0E0,0E0,0E0,0E0,0E0,0E0,0E0,0E0,0E0,0E0,0E0,0E0,0E0,0E0,0E0,0E0,0E0,0E0,0E0,0E0,0E0,0E0,0E0,0E0,0E0,0E0,0E0,0E0,0E0,0E0,0E0,0E0,0E0,0E0,0E0,0E0,0E0,0E0,0E0,0E0,0E0,0E0,0E0,0E0],"parents":[2147483647,0,0,1,1,2,2,3,3,4,4,5,5,6,6,7,7,8,8,9,9,10,10,11,11,12,12,13,13,14,14,15,15,16,16,17,17,18,18,19,19,20,20,21,21,22,22,23,23,24,24,25,25,26,26,27,27,28,28,29,29,30,30,31,31,33,33,34,34,35,35,36,36,37,37,38,38,39,39,40,40,41,41,42,42,43,43,44,44,45,45,46,46,47,47,48,48,49,49,50,50,51,51,52,52,53,53,54,54,55,55,56,56,59,59,60,60,61,61,62,62],"right_children":[2,4,6,8,10,12,14,16,18,20,22,24,26,28,30,32,34,36,38,40,42,44,46,48,50,52,54,56,58,60,62,64,-1,66,68,70,72,74,76,78,80,82,84,86,88,90,92,94,96,98,100,102,104,106,108,110,112,-1,-1,114,116,118,120,-1,-1,-1,-1,-1,-1,-1,-1,-1,-1,-1,-1,-1,-1,-1,-1,-1,-1,-1,-1,-1,-1,-1,-1,-1,-1,-1,-1,-1,-1,-1,-1,-1,-1,-1,-1,-1,-1,-1,-1,-1,-1,-1,-1,-1,-1,-1,-1,-1,-1,-1,-1,-1,-1,-1,-1,-1,-1],"split_conditions":[8.0993676E-1,9.6541315E-2,9.443607E-1,-1.3742487E-2,8.410784E1,8.410784E1,6.735713E1,6.436293E1,2.7172863E-1,2.7172863E-1,2.0573941E-1,2.0080243E-1,1E0,9.777014E-1,1E0,2.7172863E-1,-2.1828952E-1,4.342638E-2,6.436293E1,8.899303E-1,6.735713E1,1.9079425E2,1E0,7.28738E1,1.0664712E0,1E0,2.98958E-1,2.7172863E-1,1.0664721E-1,2.6558035E1,6.0959417E-1,6.9254135E1,-1.9631572E-1,4.4069025E-1,9.6880764E-1,1.4078254E-1,4.7952984E-2,3.1837275E0,9.9399376E-1,1.1874402E-1,4.6560794E-2,6.9254135E1,3.717558E-1,5.9286743E-1,5.494393E-1,-3.8486078E-1,9.5793076E1,2.7172863E-1,3.6933404E-1,8.486917E-1,3.3282417E-1,1.9339657E1,3.5503203E-1,3.8010922E-1,1.536406E2,7.4258316E-1,3.715969E1,5.1780826E-1,1.20000005E-1,5.283013E-1,9.707555E-1,1.8849187E-1,7.329868E-1,-1.6980204E-1,9.67742E-2,-1.773039E-1,1.4634146E-2,-1.0150446E-1,-1.5652776E-1,-1.076195E-1,1.0909092E-1,-5.5658627E-2,1.7432055E-2,-1.7193997E-1,-1.11482255E-1,-5.9715644E-2,-1.2543397E-1,2.8920865E-1,1.07178636E-1,-1.3267813E-2,8.6017706E-2,-1.7863122E-1,1.018868E-1,-2.6600985E-2,-1.423329E-1,7.590988E-2,-4.9177863E-2,2.6133057E-1,6.518106E-2,3.4909092E-2,3.3601356E-1,-8.8235304E-2,9.389728E-2,2.2921349E-1,-2.0673268E-2,1.3226838E-1,3.5316458E-1,1.255814E-1,3.8823533E-1,-1.166922E-1,-1.886776E-1,5.144382E-1,1.884692E-1,4.1654497E-1,1.1646981E-1,1.3344449E-1,4.0800002E-1,-1.3963135E-1,-9.614729E-3,4.4842106E-1,1.1186441E-1,-1.5902004E-1,8.108108E-2,5.2472305E-1,5.8444095E-1,3.231348E-1,5.0823534E-1,3.4364426E-1,9.274448E-2,4.7554418E-1,5.7137674E-1],"split_indices":[1,1,1,1,2,2,2,2,2,2,3,6,5,1,5,2,1,1,2,0,2,2,5,2,2,4,6,2,6,0,3,0,0,3,6,3,3,0,6,3,3,0,6,6,0,6,2,2,3,1,6,0,6,3,2,3,2,0,0,3,1,6,3,0,0,0,0,0,0,0,0,0,0,0,0,0,0,0,0,0,0,0,0,0,0,0,0,0,0,0,0,0,0,0,0,0,0,0,0,0,0,0,0,0,0,0,0,0,0,0,0,0,0,0,0,0,0,0,0,0,0],"split_type":[0,0,0,0,0,0,0,0,0,0,0,0,0,0,0,0,0,0,0,0,0,0,0,0,0,0,0,0,0,0,0,0,0,0,0,0,0,0,0,0,0,0,0,0,0,0,0,0,0,0,0,0,0,0,0,0,0,0,0,0,0,0,0,0,0,0,0,0,0,0,0,0,0,0,0,0,0,0,0,0,0,0,0,0,0,0,0,0,0,0,0,0,0,0,0,0,0,0,0,0,0,0,0,0,0,0,0,0,0,0,0,0,0,0,0,0,0,0,0,0,0],"sum_hessian":[4.9551E4,2.727975E4,2.227125E4,2.0335125E4,6.944625E3,8.711625E3,1.3559625E4,1.76235E4,2.711625E3,2.07525E3,4.869375E3,9.05625E2,7.806E3,1.54875E2,1.340475E4,1.6015875E4,1.607625E3,9.32625E2,1.779E3,6.13875E2,1.461375E3,3.388125E3,1.48125E3,5.13375E2,3.9225E2,6.62025E3,1.18575E3,1.36125E2,1.875E1,1.231425E4,1.0905E3,1.224375E3,1.47915E4,6.59625E2,9.48E2,5.3175E2,4.00875E2,7.4925E2,1.02975E3,2.11875E2,4.02E2,1.095E3,3.66375E2,1.78725E3,1.600875E3,1.242375E3,2.38875E2,3.58125E2,1.5525E2,3E1,3.6225E2,3.973125E3,2.647125E3,6.04125E2,5.81625E2,1.725E1,1.18875E2,1.725E1,1.5E0,1.2031875E4,2.82375E2,4.15125E2,6.75375E2,1.217625E3,6.75E0,6.555E2,4.125E0,4.06125E2,5.41875E2,5.2725E2,4.5E0,2.685E2,1.32375E2,6.90375E2,5.8875E1,3.6825E2,6.615E2,1.38E2,7.3875E1,4.9875E1,3.52125E2,1.089375E3,5.625E0,1.76625E2,1.8975E2,7.92375E2,9.94875E2,4.8E2,1.120875E3,1.365E2,1.105875E3,3.3E1,2.05875E2,4.35E1,3.14625E2,7.725E1,7.8E1,9.75E0,2.025E1,8.0625E1,2.81625E2,3.722625E3,2.505E2,2.08725E3,5.59875E2,3.73875E2,2.3025E2,2.16E2,3.65625E2,1.0875E1,6.375E0,5.5125E1,6.375E1,2.334375E3,9.6975E3,1.98375E2,8.4E1,2.57625E2,1.575E2,1.9425E2,4.81125E2],"tree_param":{"num_deleted":"0","num_feature":"7","num_nodes":"121","size_leaf_vector":"1"}},{"base_weights":[-4.4135454E-1,-5.006106E-1,1.9714294E-1,-6.140592E-1,-4.2084658E-1,4.2399433E-1,-3.6057496E-1,-6.3725525E-1,-4.515509E-1,-1.7142597E-1,-5.955473E-1,1.19332425E-1,8.495894E-1,-1.097006E-1,-5.4799926E-1,-6.491748E-1,-5.899172E-1,-2.9530528E-1,-5.733574E-1,-4.1221127E-1,-7.6759465E-2,-4.9862653E-1,-6.3519245E-1,4.5152938E-1,-1.4428754E-1,5.5226207E-1,1.0906119E0,-2.8615034E-1,1.8693982E-1,-4.0758294E-1,-6.077575E-1,-5.442478E-1,-6.5097004E-1,-5.3890705E-1,-6.1821616E-1,-4.2555663E-1,-7.504078E-2,-4.3396226E-1,-6.0797143E-1,-2.85565E-1,-4.686569E-1,-3.6669102E-1,9.306188E-2,-5.688307E-1,-3.4297812E-1,-4.372556E-1,-6.416024E-1,-1.8105263E-1,5.65591E-1,1.193525E-1,-4.4219732E-1,7.0744246E-1,-1.7E-1,1.1482701E0,6.525038E-1,1.9646365E-2,-3.5849056E-1,-3.2365146E-1,4.117647E-1,-5.1692814E-1,-1.2783505E-1,1.20000005E-1,-6.1169803E-1,-1.7126364E-1,-1.0972763E-1,-1.9651031E-1,-1.8482785E-1,-1.6788387E-1,-2.179177E-2,-1.8961768E-1,-1.6303143E-1,-1.326475E-1,-6.7317076E-2,1.4537988E-2,-1.6363637E-1,-1.3724697E-1,-3.157895E-2,-1.8902083E-1,-1.5933612E-1,-1.4636056E-1,-2.475196E-2,-1.9656947E-1,-1.3643713E-1,-4.3214712E-2,-1.3249081E-1,-1.4196456E-2,6.857906E-2,-1.462664E-1,-1.881852E-1,-1.3546558E-1,-6.1356816E-2,-6.5806456E-2,-1.4911404E-1,-1.8645269E-1,-1.9729957E-1,1.6972113E-1,-1.3323905E-1,2.7141714E-1,7.666546E-2,-1.4953847E-1,7.017443E-2,-1.4719068E-1,-1.4634146E-2,2.6162377E-1,1.04923606E-1,3.2307696E-1,-6.291561E-2,2.429752E-1,3.6899388E-1,2.1011673E-2,3.0146343E-1,-2.7493263E-2,9.041096E-2,-8.418367E-2,-1.7142859E-1,-1.3457943E-1,1.7419355E-1,4.2253524E-2,2.7046633E-1,-1.6147895E-1,-0E0,-1.02089554E-1,9.8734185E-2,-1.8797846E-1,-1.359116E-1],"categories":[],"categories_nodes":[],"categories_segments":[],"categories_sizes":[],"default_left":[0,0,0,0,0,0,0,0,0,0,0,0,0,0,0,0,0,0,0,0,0,0,0,0,0,0,0,0,0,0,0,0,0,0,0,0,0,0,0,0,0,0,0,0,0,0,0,0,0,0,0,0,0,0,0,0,0,0,0,0,0,0,0,0,0,0,0,0,0,0,0,0,0,0,0,0,0,0,0,0,0,0,0,0,0,0,0,0,0,0,0,0,0,0,0,0,0,0,0,0,0,0,0,0,0,0,0,0,0,0,0,0,0,0,0,0,0,0,0,0,0,0,0,0,0],"id":2,"left_children":[1,3,5,7,9,11,13,15,17,19,21,23,25,27,29,31,33,35,37,39,41,43,45,47,49,51,53,55,57,59,61,63,65,67,69,71,73,75,77,79,81,83,85,87,89,91,93,95,97,99,101,103,105,107,109,111,113,115,117,119,121,-1,123,-1,-1,-1,-1,-1,-1,-1,-1,-1,-1,-1,-1,-1,-1,-1,-1,-1,-1,-1,-1,-1,-1,-1,-1,-1,-1,-1,-1,-1,-1,-1,-1,-1,-1,-1,-1,-1,-1,-1,-1,-1,-1,-1,-1,-1,-1,-1,-1,-1,-1,-1,-1,-1,-1,-1,-1,-1,-1,-1,-1,-1,-1],"loss_changes":[1.8748906E3,4.100664E2,5.326558E2,7.026758E1,1.1601807E3,3.8789777E2,5.718669E1,8.857422E0,4.4391174E1,2.5001617E2,5.985254E1,1.5289229E2,8.8850525E1,2.7369535E1,5.597687E0,2.1088867E0,4.437866E0,2.9453957E1,6.0792847E0,2.1994751E1,3.877844E2,4.9529053E1,1.3814453E1,5.5831833E1,7.653203E1,6.2983643E1,1.6639465E1,7.254568E0,2.2546722E1,6.388218E0,2.1771088E0,8.654556E-1,1.4174805E0,1.142038E1,1.8499146E0,2.0569763E0,2.2284634E1,2.0012245E0,1.449585E0,3.926764E1,5.237488E0,4.8477783E1,9.451962E1,1.4585815E1,2.1208893E1,4.4721375E0,3.0639648E0,2.358131E1,6.859906E1,3.6735462E1,8.691994E0,2.6894836E1,5.178464E0,1.5785278E1,1.6836731E1,2.022464E0,4.234215E0,7.0680556E0,1.7919357E1,1.6694603E0,5.997772E0,0E0,8.627167E-1,0E0,0E0,0E0,0E0,0E0,0E0,0E0,0E0,0E0,0E0,0E0,0E0,0E0,0E0,0E0,0E0,0E0,0E0,0E0,0E0,0E0,0E0,0E0,0E0,0E0,0E0,0E0,0E0,0E0,0E0,0E0,0E0,0E0,0E0,0E0,0E0,0E0,0E0,0E0,0E0,0E0,0E0,0E0,0E0,0E0,0E0,0E0,0E0,0E0,0E0,0E0,0E0,0E0,0E0,0E0,0E0,0E0,0E0,0E0,0E0,0E0,0E0],"parents":[2147483647,0,0,1,1,2,2,3,3,4,4,5,5,6,6,7,7,8,8,9,9,10,10,11,11,12,12,13,13,14,14,15,15,16,16,17,17,18,18,19,19,20,20,21,21,22,22,23,23,24,24,25,25,26,26,27,27,28,28,29,29,30,30,31,31,32,32,33,33,34,34,35,35,36,36,37,37,38,38,39,39,40,40,41,41,42,42,43,43,44,44,45,45,46,46,47,47,48,48,49,49,50,50,51,51,52,52,53,53,54,54,55,55,56,56,57,57,58,58,59,59,60,60,62,62],"right_children":[2,4,6,8,10,12,14,16,18,20,22,24,26,28,30,32,34,36,38,40,42,44,46,48,50,52,54,56,58,60,62,64,66,68,70,72,74,76,78,80,82,84,86,88,90,92,94,96,98,100,102,104,106,108,110,112,114,116,118,120,122,-1,124,-1,-1,-1,-1,-1,-1,-1,-1,-1,-1,-1,-1,-1,-1,-1,-1,-1,-1,-1,-1,-1,-1,-1,-1,-1,-1,-1,-1,-1,-1,-1,-1,-1,-1,-1,-1,-1,-1,-1,-1,-1,-1,-1,-1,-1,-1,-1,-1,-1,-1,-1,-1,-1,-1,-1,-1,-1,-1,-1,-1,-1,-1],"split_conditions":[1E0,4.8593143E1,4.3673113E-1,4.342638E-2,3.7296584E-1,1.536406E2,6.0959417E-1,-1.6910587E-1,2.7172863E-1,1.2385296E-1,5.082644E-1,5.014926E-1,5.776734E-1,1.6897066E2,7.329868E-1,-3.0725726E-1,2.7172863E-1,2.0067807E-1,-9.851217E-2,6.748006E-1,1E0,1E0,-1.5654522E-1,5.485724E1,1.8515563E-1,8.636078E-1,3.5898033E-1,-9.851217E-2,9.431277E-1,1.7641205E2,-6.06609E-1,1.4669599E1,1.7829226E1,1.0184353E-1,2.2172695E1,9.140126E-2,1.1683816E1,9.443607E-1,1.2396722E0,-2.0625071E-1,-4.0888664E-1,2.3182888E-1,6.974224E-1,3.5503203E-1,1.4509358E2,5.4961616E-1,9.7309095E-1,4.9002533E0,2.6943833E-1,-3.3685037E-1,1.3590619E2,3.1601614E-1,1E0,1.1692089E-1,9.241248E-1,1.1651114E0,2.4426627E-1,3.6048898E-1,8.2142115E-1,5.0677814E0,9.0858227E-1,1.20000005E-1,2.98958E-1,-1.7126364E-1,-1.0972763E-1,-1.9651031E-1,-1.8482785E-1,-1.6788387E-1,-2.179177E-2,-1.8961768E-1,-1.6303143E-1,-1.326475E-1,-6.7317076E-2,1.4537988E-2,-1.6363637E-1,-1.3724697E-1,-3.157895E-2,-1.8902083E-1,-1.5933612E-1,-1.4636056E-1,-2.475196E-2,-1.9656947E-1,-1.3643713E-1,-4.3214712E-2,-1.3249081E-1,-1.4196456E-2,6.857906E-2,-1.462664E-1,-1.881852E-1,-1.3546558E-1,-6.1356816E-2,-6.5806456E-2,-1.4911404E-1,-1.8645269E-1,-1.9729957E-1,1.6972113E-1,-1.3323905E-1,2.7141714E-1,7.666546E-2,-1.4953847E-1,7.017443E-2,-1.4719068E-1,-1.4634146E-2,2.6162377E-1,1.04923606E-1,3.2307696E-1,-6.291561E-2,2.429752E-1,3.6899388E-1,2.1011673E-2,3.0146343E-1,-2.7493263E-2,9.041096E-2,-8.418367E-2,-1.7142859E-1,-1.3457943E-1,1.7419355E-1,4.2253524E-2,2.7046633E-1,-1.6147895E-1,-0E0,-1.02089554E-1,9.8734185E-2,-1.8797846E-1,-1.359116E-1],"split_indices":[5,2,3,1,3,2,3,1,2,1,3,6,0,2,3,6,2,1,6,6,4,4,6,2,3,6,3,6,1,2,6,0,2,3,2,3,0,1,0,1,1,6,0,6,2,3,1,2,3,1,2,3,4,3,1,0,6,6,0,0,0,0,6,0,0,0,0,0,0,0,0,0,0,0,0,0,0,0,0,0,0,0,0,0,0,0,0,0,0,0,0,0,0,0,0,0,0,0,0,0,0,0,0,0,0,0,0,0,0,0,0,0,0,0,0,0,0,0,0,0,0,0,0,0,0],"split_type":[0,0,0,0,0,0,0,0,0,0,0,0,0,0,0,0,0,0,0,0,0,0,0,0,0,0,0,0,0,0,0,0,0,0,0,0,0,0,0,0,0,0,0,0,0,0,0,0,0,0,0,0,0,0,0,0,0,0,0,0,0,0,0,0,0,0,0,0,0,0,0,0,0,0,0,0,0,0,0,0,0,0,0,0,0,0,0,0,0,0,0,0,0,0,0,0,0,0,0,0,0,0,0,0,0,0,0,0,0,0,0,0,0,0,0,0,0,0,0,0,0,0,0,0,0],"sum_hessian":[4.9551E4,4.5343125E4,4.207875E3,1.871625E4,2.6626875E4,2.991375E3,1.2165E3,1.6375875E4,2.340375E3,1.096875E4,1.5658125E4,1.744125E3,1.24725E3,5.20875E2,6.95625E2,1.307175E4,3.304125E3,1.02675E3,1.313625E3,3.0945E3,7.87425E3,4.5495E3,1.1108625E4,7.71375E2,9.7275E2,5.59875E2,6.87375E2,3.26625E2,1.9425E2,2.1E2,4.85625E2,2.25E2,1.284675E4,1.186125E3,2.118E3,6.44625E2,3.82125E2,2.64E2,1.049625E3,9.55875E2,2.138625E3,2.908125E3,4.966125E3,3.1335E3,1.416E3,3.50625E2,1.0758E4,1.1775E2,6.53625E2,5.16375E2,4.56375E2,4.60875E2,9.9E1,6.06E2,8.1375E1,6.2625E1,2.64E2,5.925E1,1.35E2,1.50375E2,5.9625E1,1.5E0,4.84125E2,1.93875E2,3.1125E1,1.149E4,1.35675E3,1.1355E3,5.0625E1,1.780875E3,3.37125E2,5.94375E2,5.025E1,3.03375E2,7.875E1,2.46E2,1.8E1,8.09625E2,2.4E2,4.78125E2,4.7775E2,1.4475E2,1.993875E3,7.33125E2,2.175E3,2.43975E3,2.526375E3,1.31475E3,1.81875E3,7.92375E2,6.23625E2,7.65E1,2.74125E2,4.797E3,5.961E3,3.0375E1,8.7375E1,3.1125E2,3.42375E2,8.025E1,4.36125E2,4.06125E2,5.025E1,3.14625E2,1.4625E2,2.25E0,9.675E1,1.2E2,4.86E2,3.1125E1,5.025E1,4.5375E1,1.725E1,1.95E2,6.9E1,5.25E1,6.75E0,8.775E1,4.725E1,1.44375E2,6E0,4.0875E1,1.875E1,4.39875E2,4.425E1],"tree_param":{"num_deleted":"0","num_feature":"7","num_nodes":"125","size_leaf_vector":"1"}},{"base_weights":[4.8809332E-1,1.67149E0,-3.6261073E-1,1.7128919E0,1.7286162E-1,8.884321E-1,-5.0026953E-1,1.7783287E0,1.0884292E0,8.435878E-1,-1.1712E-1,-1.9527236E-1,1.1808085E0,-1.1828194E-1,-5.811599E-1,1.8300732E0,1.4110157E0,1.2147663E0,6.9413966E-1,1.087886E0,4.3106797E-1,-3.2621157E-1,2.1416804E-1,6.2193125E-2,-4.5368466E-1,1.5791396E0,5.62332E-1,1.9497144E-1,-3.444418E-1,-4.644226E-1,-6.3631755E-1,1.6435331E0,1.8504628E0,1.4779608E0,5.103011E-1,1.335949E0,9.251306E-1,7.426326E-1,-2.857143E-1,6.434783E-1,1.2387097E0,9.0909094E-1,2.9539952E-1,-4.4741875E-1,-1.7934166E-1,4E-1,6.2038403E-2,-1.057184E-2,4.690027E-1,-5.09111E-1,-2.8753993E-1,1.1061296E0,1.7442607E0,-4.5295354E-2,1.4928367E0,-2.14293E-1,9.337261E-1,1.7372577E-1,-4.2310423E-1,-5.8448595E-1,8.3361924E-1,-6.5392476E-1,-5.62436E-1,4.9946132E-1,1.6015938E-1,5.590242E-1,4.8716646E-1,5.311476E-1,4.2075658E-1,4.4299066E-1,1.2536544E-1,4.085123E-1,1.8225257E-1,3.485431E-1,2.1412277E-1,3.2667333E-1,1.8163425E-1,-1.0588236E-1,1.20000005E-1,2.425532E-1,-2.4E-2,9.4736844E-2,3.844068E-1,3.4736842E-1,-1.3043478E-1,1.04960844E-1,-9.4736844E-2,-1.4173229E-1,9.4736844E-2,-7.452949E-2,1.3043478E-1,2.369748E-1,8.5714296E-2,-1.7142859E-1,3.529412E-2,6.1070308E-2,-5.7042256E-2,1.8773007E-1,-1.6981132E-1,-1.2886837E-1,-1.7313747E-1,1.01298705E-1,-1.1095153E-1,3.804669E-1,1.9476442E-1,5.286268E-1,8.411215E-2,-4.862994E-2,1.3398059E-1,3.5142857E-1,5.417143E-1,-9.1976054E-2,-5.1641697E-3,2.0031798E-1,3.480164E-1,6.677228E-2,-8.698885E-2,-9.3752205E-2,-1.5572801E-1,-1.8149006E-1,-3.2003846E-2,4.141534E-1,2.4632541E-2,1.7647061E-1,-1.9622815E-1,-1.7659229E-1,-6.4568914E-2],"categories":[],"categories_nodes":[],"categories_segments":[],"categories_sizes":[],"default_left":[0,0,0,0,0,0,0,0,0,0,0,0,0,0,0,0,0,0,0,0,0,0,0,0,0,0,0,0,0,0,0,0,0,0,0,0,0,0,0,0,0,0,0,0,0,0,0,0,0,0,0,0,0,0,0,0,0,0,0,0,0,0,0,0,0,0,0,0,0,0,0,0,0,0,0,0,0,0,0,0,0,0,0,0,0,0,0,0,0,0,0,0,0,0,0,0,0,0,0,0,0,0,0,0,0,0,0,0,0,0,0,0,0,0,0,0,0,0,0,0,0,0,0,0,0,0,0],"id":3,"left_children":[1,3,5,7,9,11,13,15,17,19,21,23,25,27,29,31,33,35,37,39,41,43,45,47,49,51,53,55,57,59,61,63,65,67,69,71,73,75,77,79,81,83,85,87,89,91,93,95,97,99,101,103,105,107,109,111,113,115,117,119,121,123,125,-1,-1,-1,-1,-1,-1,-1,-1,-1,-1,-1,-1,-1,-1,-1,-1,-1,-1,-1,-1,-1,-1,-1,-1,-1,-1,-1,-1,-1,-1,-1,-1,-1,-1,-1,-1,-1,-1,-1,-1,-1,-1,-1,-1,-1,-1,-1,-1,-1,-1,-1,-1,-1,-1,-1,-1,-1,-1,-1,-1,-1,-1,-1,-1],"loss_changes":[4.988561E4,1.2855391E3,4.9653115E3,8.221289E2,1.0867747E2,9.058264E2,8.0244336E2,3.4432812E2,9.4568115E1,1.6524712E1,2.7128275E1,4.0488136E1,5.536648E2,3.2170502E2,1.3771094E2,5.7789062E1,1.3540674E2,4.9631104E1,2.2408081E1,6.257538E0,3.9063425E0,4.1899395E0,4.26524E0,9.048212E0,2.6496315E0,1.0496582E2,4.9952786E2,5.7590466E2,1.07553345E2,1.0728915E3,1.8562988E1,3.6640625E1,3.9265625E1,4.3890625E1,1.3470814E1,1.8302246E1,2.072171E1,2.0497925E1,1.189916E0,3.4973545E0,2.645691E0,5.100895E0,1.829155E0,2.6461449E0,4.7805977E0,2.8100834E0,3.0482478E0,1.0041246E1,7.878888E0,9.7689056E-1,4.1510935E0,2.560785E1,2.5937744E1,3.083279E1,3.298065E1,2.229694E1,4.0103455E1,7.952569E0,2.4144684E1,6.157837E1,2.3949692E2,2.8515625E0,2.5420776E1,0E0,0E0,0E0,0E0,0E0,0E0,0E0,0E0,0E0,0E0,0E0,0E0,0E0,0E0,0E0,0E0,0E0,0E0,0E0,0E0,0E0,0E0,0E0,0E0,0E0,0E0,0E0,0E0,0E0,0E0,0E0,0E0,0E0,0E0,0E0,0E0,0E0,0E0,0E0,0E0,0E0,0E0,0E0,0E0,0E0,0E0,0E0,0E0,0E0,0E0,0E0,0E0,0E0,0E0,0E0,0E0,0E0,0E0,0E0,0E0,0E0,0E0,0E0,0E0],"parents":[2147483647,0,0,1,1,2,2,3,3,4,4,5,5,6,6,7,7,8,8,9,9,10,10,11,11,12,12,13,13,14,14,15,15,16,16,17,17,18,18,19,19,20,20,21,21,22,22,23,23,24,24,25,25,26,26,27,27,28,28,29,29,30,30,31,31,32,32,33,33,34,34,35,35,36,36,37,37,38,38,39,39,40,40,41,41,42,42,43,43,44,44,45,45,46,46,47,47,48,48,49,49,50,50,51,51,52,52,53,53,54,54,55,55,56,56,57,57,58,58,59,59,60,60,61,61,62,62],"right_children":[2,4,6,8,10,12,14,16,18,20,22,24,26,28,30,32,34,36,38,40,42,44,46,48,50,52,54,56,58,60,62,64,66,68,70,72,74,76,78,80,82,84,86,88,90,92,94,96,98,100,102,104,106,108,110,112,114,116,118,120,122,124,126,-1,-1,-1,-1,-1,-1,-1,-1,-1,-1,-1,-1,-1,-1,-1,-1,-1,-1,-1,-1,-1,-1,-1,-1,-1,-1,-1,-1,-1,-1,-1,-1,-1,-1,-1,-1,-1,-1,-1,-1,-1,-1,-1,-1,-1,-1,-1,-1,-1,-1,-1,-1,-1,-1,-1,-1,-1,-1,-1,-1,-1,-1,-1,-1],"split_conditions":[1.2385296E-1,9.619156E0,8.004591E1,2.8717522E-2,1.9339657E1,2.7172863E-1,2.4538113E-1,5.167693E1,2.076297E0,5.8827144E-1,1.7047149E-1,3.3961388E-1,5.805205E1,1.664961E2,1.5686388E2,2.7172863E-1,1E0,8.533967E-2,1E0,1.502893E-1,2.0152838E0,1.11611515E-1,3.6842686E1,1.15101464E-1,6.700028E-1,-5.974306E-2,3.717558E-1,6.900909E-1,2.2474813E-1,4.3157464E-1,1E0,1E0,3.1837275E0,-3.7834257E-1,-4.5417988E-1,1E0,6.735713E1,5.0808698E-2,5.912243E0,-9.585068E-2,1.192963E0,-1.3697945E-1,2.1140784E2,9.9449164E-1,7.927243E-1,-1.7650019E-1,1.7773154E0,1.7782754E-1,1.4669599E1,7.305665E-1,7.046842E-1,3.978144E1,1.9339657E1,1.7617486E-1,2.4263282E-1,4.1037413E-1,4.5949867E-1,1E0,1.5224332E-1,2.9331088E-1,1.32327E2,2.784637E-1,6.648067E-1,4.9946132E-1,1.6015938E-1,5.590242E-1,4.8716646E-1,5.311476E-1,4.2075658E-1,4.4299066E-1,1.2536544E-1,4.085123E-1,1.8225257E-1,3.485431E-1,2.1412277E-1,3.2667333E-1,1.8163425E-1,-1.0588236E-1,1.20000005E-1,2.425532E-1,-2.4E-2,9.4736844E-2,3.844068E-1,3.4736842E-1,-1.3043478E-1,1.04960844E-1,-9.4736844E-2,-1.4173229E-1,9.4736844E-2,-7.452949E-2,1.3043478E-1,2.369748E-1,8.5714296E-2,-1.7142859E-1,3.529412E-2,6.1070308E-2,-5.7042256E-2,1.8773007E-1,-1.6981132E-1,-1.2886837E-1,-1.7313747E-1,1.01298705E-1,-1.1095153E-1,3.804669E-1,1.9476442E-1,5.286268E-1,8.411215E-2,-4.862994E-2,1.3398059E-1,3.5142857E-1,5.417143E-1,-9.1976054E-2,-5.1641697E-3,2.0031798E-1,3.480164E-1,6.677228E-2,-8.698885E-2,-9.3752205E-2,-1.5572801E-1,-1.8149006E-1,-3.2003846E-2,4.141534E-1,2.4632541E-2,1.7647061E-1,-1.9622815E-1,-1.7659229E-1,-6.4568914E-2],"split_indices":[1,0,2,1,0,2,3,2,0,6,3,1,2,2,2,2,5,1,5,3,2,3,0,3,6,6,6,6,1,6,4,5,0,1,1,5,2,1,0,1,2,1,2,6,6,6,2,1,0,1,6,2,0,6,3,6,1,5,3,6,2,1,6,0,0,0,0,0,0,0,0,0,0,0,0,0,0,0,0,0,0,0,0,0,0,0,0,0,0,0,0,0,0,0,0,0,0,0,0,0,0,0,0,0,0,0,0,0,0,0,0,0,0,0,0,0,0,0,0,0,0,0,0,0,0,0,0],"split_type":[0,0,0,0,0,0,0,0,0,0,0,0,0,0,0,0,0,0,0,0,0,0,0,0,0,0,0,0,0,0,0,0,0,0,0,0,0,0,0,0,0,0,0,0,0,0,0,0,0,0,0,0,0,0,0,0,0,0,0,0,0,0,0,0,0,0,0,0,0,0,0,0,0,0,0,0,0,0,0,0,0,0,0,0,0,0,0,0,0,0,0,0,0,0,0,0,0,0,0,0,0,0,0,0,0,0,0,0,0,0,0,0,0,0,0,0,0,0,0,0,0,0,0,0,0,0,0],"sum_hessian":[4.9551E4,2.0722875E4,2.8828125E4,2.0165625E4,5.5725E2,2.857125E3,2.5971E4,1.825125E4,1.914375E3,1.67625E2,3.89625E2,6.07125E2,2.25E3,4.539E3,2.1432E4,1.5994125E4,2.257125E3,1.44825E3,4.66125E2,1.0425E2,6.3375E1,2.38875E2,1.5075E2,3.045E2,3.02625E2,1.367625E3,8.82375E2,1.903125E3,2.635875E3,6.880125E3,1.4551875E4,1.584E3,1.4410125E4,2.100375E3,1.5675E2,1.0185E3,4.2975E2,4.44375E2,2.175E1,2.775E1,7.65E1,1.275E1,5.0625E1,1.2975E2,1.09125E2,6.7125E1,8.3625E1,2.59125E2,4.5375E1,2.25375E2,7.725E1,3.55875E2,1.01175E3,5.34375E2,3.48E2,1.225125E3,6.78E2,3.4725E2,2.288625E3,6.298125E3,5.82E2,1.1745E4,2.806875E3,1.553625E3,3.0375E1,1.3624125E4,7.86E2,4.26E2,1.674375E3,1.2375E1,1.44375E2,9.82875E2,3.5625E1,2.00625E2,2.29125E2,1.24125E2,3.2025E2,2.025E1,1.5E0,2.25E1,5.25E0,3.75E0,7.275E1,1.0875E1,1.875E0,4.6875E1,3.75E0,1.26E2,3.75E0,9.8625E1,1.05E1,1.3875E1,5.325E1,6E0,7.7625E1,1.18125E2,1.41E2,3.975E1,5.625E0,1.0725E2,1.18125E2,8.625E0,6.8625E1,2.61375E2,9.45E1,9.99375E2,1.2375E1,4.32375E2,1.02E2,1.74E2,1.74E2,8.34E2,3.91125E2,3.135E2,3.645E2,3.14625E2,3.2625E1,1.065375E3,1.22325E3,6.039E3,2.59125E2,3.36375E2,2.45625E2,1.125E0,1.1743875E4,2.60925E3,1.97625E2],"tree_param":{"num_deleted":"0","num_feature":"7","num_nodes":"127","size_leaf_vector":"1"}},{"base_weights":[-4.798044E-1,-5.1554775E-1,4.3589345E-1,-5.321856E-1,-3.1157708E-1,7.529191E-1,6.180964E-2,-4.8716262E-1,-5.834413E-1,-2.0280446E-1,-5.005956E-1,9.75033E-1,5.1783824E-1,1.8941043E-1,-3.0270308E-1,-4.9727735E-1,-4.175347E-1,-5.7124335E-1,-1.8271416E-1,-2.5675783E-1,1.4755736E-1,-4.3304458E-1,-5.7108086E-1,1.0651505E0,8.451573E-1,2.8767392E-1,6.1681175E-1,-2.4207968E-2,3.0937204E-1,-1.5255466E-1,-1.2900753E-1,-4.5469847E-1,-5.061586E-1,-3.6183244E-1,-5.2141875E-1,-5.2948046E-1,-5.798635E-1,-3.070221E-1,1.4984345E-1,-8.289182E-2,3.0887523E-1,-5.078985E-1,-3.449268E-1,-1.7422868E-1,-8.206484E-2,-1.9740626E-2,1.0781798E0,1.0185751E0,7.601132E-1,5.165402E-1,-6.0725305E-2,7.5902694E-1,4.9338242E-1,-2.5057855E-1,6.186385E-2,5.7854168E-2,3.6972618E-1,-4.3327862E-1,-7.25333E-3,-1.2917064E-1,-1.4953622E-1,-1.5391855E-1,-1.3264166E-1,-2.4459926E-2,-1.20187186E-1,-1.5816446E-1,-4.373505E-2,-1.7161125E-1,-1.3799344E-1,-1.5348144E-1,-1.7493957E-1,-1.0945598E-1,-5.9486113E-2,-6.697786E-2,1.4066261E-1,1.177003E-1,-4.917682E-2,1.3390459E-1,-2.569157E-2,-1.607268E-1,-1.09768346E-1,3.1276263E-2,-1.0964993E-1,4.5021452E-2,-1.4678258E-1,-1.2718092E-1,1.4873773E-1,2.320929E-1,3.311632E-1,1.9643778E-1,3.3377498E-1,2.7375582E-1,1.6522339E-1,-2.4035761E-2,1.8272124E-1,2.7576005E-2,-1.1520121E-1,6.1732043E-2,2.443392E-1,2.1090488E-1,9.792321E-2,9.530737E-3,-1.4214586E-1,5.452118E-2,-4.404117E-2,1.5173367E-1,-4.61827E-2,1.4562313E-1,7.1842015E-2,1.7213243E-1,-1.5682946E-1,3.1979132E-2,-1.3943419E-1],"categories":[],"categories_nodes":[],"categories_segments":[],"categories_sizes":[],"default_left":[0,0,0,0,0,0,0,0,0,0,0,0,0,0,0,0,0,0,0,0,0,0,0,0,0,0,0,0,0,0,0,0,0,0,0,0,0,0,0,0,0,0,0,0,0,0,0,0,0,0,0,0,0,0,0,0,0,0,0,0,0,0,0,0,0,0,0,0,0,0,0,0,0,0,0,0,0,0,0,0,0,0,0,0,0,0,0,0,0,0,0,0,0,0,0,0,0,0,0,0,0,0,0,0,0,0,0,0,0,0,0,0,0],"id":4,"left_children":[1,3,5,7,9,11,13,15,17,19,21,23,25,27,29,31,33,35,-1,37,39,41,43,45,47,49,51,53,55,-1,57,59,61,63,65,67,69,71,73,75,77,79,81,-1,83,85,87,89,91,93,95,97,99,101,103,105,107,109,111,-1,-1,-1,-1,-1,-1,-1,-1,-1,-1,-1,-1,-1,-1,-1,-1,-1,-1,-1,-1,-1,-1,-1,-1,-1,-1,-1,-1,-1,-1,-1,-1,-1,-1,-1,-1,-1,-1,-1,-1,-1,-1,-1,-1,-1,-1,-1,-1,-1,-1,-1,-1,-1,-1],"loss_changes":[1.4020527E3,1.3972461E2,1.908377E2,8.766406E1,6.386563E1,4.498108E1,3.44496E1,1.40859375E1,5.216797E0,3.739994E1,5.16037E0,4.3289795E0,9.512001E0,1.4058601E1,6.802141E0,6.4692383E0,1.4743805E1,4.043457E0,0E0,3.5057655E1,9.8543E0,3.677391E0,2.5688782E0,3.6954346E0,1.9963837E0,1.0379434E1,4.831314E0,3.875532E0,5.3099136E0,0E0,3.9061573E0,3.0237427E0,6.2475586E0,1.8267853E1,1.8791962E0,5.8862305E0,1.9338379E0,9.517029E0,2.2619268E1,4.2868905E0,8.484335E0,1.0448914E0,2.54599E0,0E0,1.197714E0,1.0575697E0,1.1561584E0,1.2848701E0,3.645279E0,4.3788815E0,2.6184785E0,4.0017853E0,5.4279594E0,3.467536E0,3.6371E0,6.6381383E0,4.148834E0,3.0161786E0,4.028349E0,0E0,0E0,0E0,0E0,0E0,0E0,0E0,0E0,0E0,0E0,0E0,0E0,0E0,0E0,0E0,0E0,0E0,0E0,0E0,0E0,0E0,0E0,0E0,0E0,0E0,0E0,0E0,0E0,0E0,0E0,0E0,0E0,0E0,0E0,0E0,0E0,0E0,0E0,0E0,0E0,0E0,0E0,0E0,0E0,0E0,0E0,0E0,0E0,0E0,0E0,0E0,0E0,0E0,0E0],"parents":[2147483647,0,0,1,1,2,2,3,3,4,4,5,5,6,6,7,7,8,8,9,9,10,10,11,11,12,12,13,13,14,14,15,15,16,16,17,17,19,19,20,20,21,21,22,22,23,23,24,24,25,25,26,26,27,27,28,28,30,30,31,31,32,32,33,33,34,34,35,35,36,36,37,37,38,38,39,39,40,40,41,41,42,42,44,44,45,45,46,46,47,47,48,48,49,49,50,50,51,51,52,52,53,53,54,54,55,55,56,56,57,57,58,58],"right_children":[2,4,6,8,10,12,14,16,18,20,22,24,26,28,30,32,34,36,-1,38,40,42,44,46,48,50,52,54,56,-1,58,60,62,64,66,68,70,72,74,76,78,80,82,-1,84,86,88,90,92,94,96,98,100,102,104,106,108,110,112,-1,-1,-1,-1,-1,-1,-1,-1,-1,-1,-1,-1,-1,-1,-1,-1,-1,-1,-1,-1,-1,-1,-1,-1,-1,-1,-1,-1,-1,-1,-1,-1,-1,-1,-1,-1,-1,-1,-1,-1,-1,-1,-1,-1,-1,-1,-1,-1,-1,-1,-1,-1,-1,-1],"split_conditions":[1.9339657E1,3.1837275E0,8.176544E-1,7.661883E-1,7.5487053E-1,1.6206862E-1,9.598015E-1,1.7232295E2,9.707555E-1,9.619156E0,9.4663733E-1,1.15101464E-1,3.6842686E1,4.9640713E1,4.9640713E1,2.0780958E-1,1.4254576E-1,-6.687728E-2,-1.8271416E-1,9.9557334E-1,3.159542E-1,6.5456357E0,2.9484064E2,6.0502827E-2,1E0,-2.4321964E-1,1E0,2.6558035E1,1.2558416E2,-1.5255466E-1,1.664961E2,-5.2674776E-1,1.9808123E0,3.6624017E-1,4.2879146E-1,1.552703E2,7.022318E1,5.0808698E-2,5.0808698E-2,1.2584549E-1,1.4018402E-1,4.6151486E-1,-6.06609E-1,-1.7422868E-1,9.684109E-1,6.9254135E1,2.6558035E1,4.9640713E1,-4.2426744E-1,-2.775207E-1,1.974996E2,2.7172863E-1,-4.0888664E-1,9.074462E-1,1E0,2.7172863E-1,9.241248E-1,2.7172863E-1,9.7720814E-1,-1.2917064E-1,-1.4953622E-1,-1.5391855E-1,-1.3264166E-1,-2.4459926E-2,-1.20187186E-1,-1.5816446E-1,-4.373505E-2,-1.7161125E-1,-1.3799344E-1,-1.5348144E-1,-1.7493957E-1,-1.0945598E-1,-5.9486113E-2,-6.697786E-2,1.4066261E-1,1.177003E-1,-4.917682E-2,1.3390459E-1,-2.569157E-2,-1.607268E-1,-1.09768346E-1,3.1276263E-2,-1.0964993E-1,4.5021452E-2,-1.4678258E-1,-1.2718092E-1,1.4873773E-1,2.320929E-1,3.311632E-1,1.9643778E-1,3.3377498E-1,2.7375582E-1,1.6522339E-1,-2.4035761E-2,1.8272124E-1,2.7576005E-2,-1.1520121E-1,6.1732043E-2,2.443392E-1,2.1090488E-1,9.792321E-2,9.530737E-3,-1.4214586E-1,5.452118E-2,-4.404117E-2,1.5173367E-1,-4.61827E-2,1.4562313E-1,7.1842015E-2,1.7213243E-1,-1.5682946E-1,3.1979132E-2,-1.3943419E-1],"split_indices":[0,0,1,1,1,3,1,2,1,0,1,3,0,0,0,0,3,6,0,6,6,0,2,3,4,1,4,0,2,0,2,1,0,6,3,2,2,1,1,3,1,3,6,0,1,0,0,0,1,6,2,2,1,1,4,2,1,2,1,0,0,0,0,0,0,0,0,0,0,0,0,0,0,0,0,0,0,0,0,0,0,0,0,0,0,0,0,0,0,0,0,0,0,0,0,0,0,0,0,0,0,0,0,0,0,0,0,0,0,0,0,0,0],"split_type":[0,0,0,0,0,0,0,0,0,0,0,0,0,0,0,0,0,0,0,0,0,0,0,0,0,0,0,0,0,0,0,0,0,0,0,0,0,0,0,0,0,0,0,0,0,0,0,0,0,0,0,0,0,0,0,0,0,0,0,0,0,0,0,0,0,0,0,0,0,0,0,0,0,0,0,0,0,0,0,0,0,0,0,0,0,0,0,0,0,0,0,0,0,0,0,0,0,0,0,0,0,0,0,0,0,0,0,0,0,0,0,0,0],"sum_hessian":[4.2828906E4,4.1220348E4,1.6085587E3,3.811011E4,3.1102373E3,8.701327E2,7.3842596E2,2.0294209E4,1.78159E4,1.9754929E3,1.1347444E3,4.457872E2,4.243455E2,5.473143E2,1.9111165E2,1.7714688E4,2.5795222E3,1.2083118E4,5.732783E3,1.712107E3,2.6338586E2,5.830803E2,5.5166406E2,2.5892462E2,1.868626E2,1.2877773E2,2.9556778E2,1.9711153E2,3.5020276E2,8.658691E1,1.0452475E2,3.066294E3,1.4648393E4,1.6820797E3,8.974424E2,2.0780112E3,1.0005106E4,1.5239594E3,1.8814775E2,1.0865455E2,1.5473132E2,3.126921E2,2.7038818E2,5.407704E2,1.0893659E1,3.0666118E0,2.55858E2,5.7873314E1,1.2898929E2,7.743043E1,5.134729E1,1.3494022E2,1.6062756E2,5.3773884E1,1.4333763E2,6.8151E1,2.820518E2,2.9141E1,7.538374E1,1.983373E3,1.082921E3,1.3216265E4,1.4321277E3,2.0486562E2,1.4772141E3,8.834079E2,1.4034518E1,1.2843562E3,7.9365497E2,4.6437854E2,9.540729E3,9.9330884E2,5.306505E2,8.686299E1,1.0128476E2,1.5268253E1,9.338629E1,1.1464902E2,4.0082306E1,2.590921E2,5.3600014E1,1.1663542E1,2.5872464E2,7.3405395E0,3.553119E0,1.8185103E0,1.2481014E0,2.23304E1,2.335276E2,1.3520084E1,4.435323E1,7.270587E1,5.6283413E1,1.0413805E1,6.7016624E1,3.5364563E1,1.5982728E1,1.2718941E1,1.2222128E2,6.979244E1,9.083512E1,2.4122387E1,2.9651495E1,9.112062E1,5.2217022E1,2.143354E1,4.671746E1,1.4793571E2,1.3411606E2,1.936483E0,2.720452E1,6.0977264E1,1.4406481E1],"tree_param":{"num_deleted":"0","num_feature":"7","num_nodes":"113","size_leaf_vector":"1"}},{"base_weights":[3.5818294E-1,-3.801011E-1,9.3810886E-1,-5.6237E-1,7.15201E-2,5.1830417E-1,1.0381987E0,-5.903652E-1,-3.9823267E-1,-7.991365E-2,3.296343E-1,6.64326E-1,-7.463265E-2,-8.071407E-2,1.0757583E0,-6.023513E-1,-4.5561624E-1,-3.04688E-1,-4.422834E-1,1.822375E-1,-1.56761E-1,5.676102E-1,1.7781907E-1,8.787451E-1,4.308736E-1,2.441367E-1,-2.2861007E-1,2.5213456E-1,-3.8297808E-1,7.005484E-1,1.0944073E0,-5.365833E-1,-1.8206151E-1,-5.337942E-1,-3.783035E-1,-3.190953E-1,1.20180875E-1,-5.3179735E-1,-3.5948253E-1,4.449599E-1,7.880571E-2,-4.8283568E-1,4.782015E-2,-6.969532E-2,6.261241E-1,6.926881E-2,5.438724E-1,3.9468572E-1,9.863382E-1,5.788573E-1,1.2472163E-1,1.4306311E-2,4.2888132E-1,-4.0024018E-1,-1.0920575E-1,1.1661295E-1,9.998399E-1,6.8478066E-1,-4.883497E-1,5.99751E-1,9.99783E-1,1.1173108E0,8.371819E-1,-1.6284911E-1,8.095893E-2,-1.6149123E-1,2.787988E-2,-8.0638714E-2,-1.3967687E-1,-1.1803683E-1,-7.523256E-2,-6.136491E-3,3.448528E-1,-1.617822E-1,-8.466602E-2,-1.2699535E-1,-4.4880994E-2,4.7300406E-2,1.7939262E-1,-2.6090946E-2,5.271368E-2,-1.6016541E-1,-8.783573E-2,7.156696E-2,-5.625662E-2,-8.421747E-2,6.1362077E-2,2.157338E-1,6.691667E-2,3.232075E-2,-5.2659106E-2,-5.8067627E-2,1.8889587E-1,1.6210842E-1,-2.1164907E-2,3.0795094E-1,8.5357316E-2,1.1079336E-1,2.157652E-1,-5.0908178E-2,1.2685917E-1,-1.4082009E-1,4.0802263E-2,1.7709857E-1,3.29259E-2,-1.605997E-2,-1.7041335E-1,4.3838315E-2,-8.552208E-2,-9.531649E-3,1.3293661E-1,9.886619E-2,3.3217725E-1,3.4919733E-1,1.317017E-1,-1.7024699E-1,-3.400607E-2,8.426477E-2,2.0275769E-1,3.1104216E-1,1.6522872E-1,3.3797908E-1,2.1598013E-1,2.920312E-1,8.669295E-2],"categories":[],"categories_nodes":[],"categories_segments":[],"categories_sizes":[],"default_left":[0,0,0,0,0,0,0,0,0,0,0,0,0,0,0,0,0,0,0,0,0,0,0,0,0,0,0,0,0,0,0,0,0,0,0,0,0,0,0,0,0,0,0,0,0,0,0,0,0,0,0,0,0,0,0,0,0,0,0,0,0,0,0,0,0,0,0,0,0,0,0,0,0,0,0,0,0,0,0,0,0,0,0,0,0,0,0,0,0,0,0,0,0,0,0,0,0,0,0,0,0,0,0,0,0,0,0,0,0,0,0,0,0,0,0,0,0,0,0,0,0,0,0,0,0],"id":5,"left_children":[1,3,5,7,9,11,13,15,17,19,21,23,25,27,29,31,33,35,37,39,41,43,45,47,49,51,53,55,57,59,61,63,-1,65,67,69,71,73,75,77,79,81,83,85,87,89,91,93,95,97,99,101,103,105,107,109,111,113,115,117,119,121,123,-1,-1,-1,-1,-1,-1,-1,-1,-1,-1,-1,-1,-1,-1,-1,-1,-1,-1,-1,-1,-1,-1,-1,-1,-1,-1,-1,-1,-1,-1,-1,-1,-1,-1,-1,-1,-1,-1,-1,-1,-1,-1,-1,-1,-1,-1,-1,-1,-1,-1,-1,-1,-1,-1,-1,-1,-1,-1,-1,-1,-1,-1],"loss_changes":[2.236023E4,1.8913452E3,1.2284688E3,7.498389E1,2.582917E2,4.8777063E2,9.9262305E2,2.2309082E1,9.706543E0,8.3936554E1,8.8173035E1,2.2587964E2,5.473564E1,7.736023E1,1.5912695E2,3.4907227E0,6.726227E0,4.7382584E0,1.1826752E1,2.5634447E1,2.1492079E2,3.5514008E1,5.929366E1,1.2226831E2,9.8056854E1,1.5420799E1,1.5361E1,3.697989E1,4.5662037E1,3.2118164E1,1.27296875E2,4.3491516E0,0E0,1.654068E0,5.4164124E0,3.6754913E0,3.77408E0,1.2977753E0,1.1263008E1,1.1626728E1,1.09234295E1,1.1893738E1,8.894153E1,4.7385097E0,3.2496002E1,1.0874477E1,2.1715874E1,2.9177193E1,5.400305E1,4.267215E1,6.2136192E1,9.655907E0,1.0311131E1,1.7890194E1,2.0009378E1,1.5084341E1,3.6700974E0,3.7999744E0,1.0835213E1,1.9562408E1,3.947937E0,7.292969E1,1.3294885E2,0E0,0E0,0E0,0E0,0E0,0E0,0E0,0E0,0E0,0E0,0E0,0E0,0E0,0E0,0E0,0E0,0E0,0E0,0E0,0E0,0E0,0E0,0E0,0E0,0E0,0E0,0E0,0E0,0E0,0E0,0E0,0E0,0E0,0E0,0E0,0E0,0E0,0E0,0E0,0E0,0E0,0E0,0E0,0E0,0E0,0E0,0E0,0E0,0E0,0E0,0E0,0E0,0E0,0E0,0E0,0E0,0E0,0E0,0E0,0E0,0E0,0E0],"parents":[2147483647,0,0,1,1,2,2,3,3,4,4,5,5,6,6,7,7,8,8,9,9,10,10,11,11,12,12,13,13,14,14,15,15,16,16,17,17,18,18,19,19,20,20,21,21,22,22,23,23,24,24,25,25,26,26,27,27,28,28,29,29,30,30,31,31,33,33,34,34,35,35,36,36,37,37,38,38,39,39,40,40,41,41,42,42,43,43,44,44,45,45,46,46,47,47,48,48,49,49,50,50,51,51,52,52,53,53,54,54,55,55,56,56,57,57,58,58,59,59,60,60,61,61,62,62],"right_children":[2,4,6,8,10,12,14,16,18,20,22,24,26,28,30,32,34,36,38,40,42,44,46,48,50,52,54,56,58,60,62,64,-1,66,68,70,72,74,76,78,80,82,84,86,88,90,92,94,96,98,100,102,104,106,108,110,112,114,116,118,120,122,124,-1,-1,-1,-1,-1,-1,-1,-1,-1,-1,-1,-1,-1,-1,-1,-1,-1,-1,-1,-1,-1,-1,-1,-1,-1,-1,-1,-1,-1,-1,-1,-1,-1,-1,-1,-1,-1,-1,-1,-1,-1,-1,-1,-1,-1,-1,-1,-1,-1,-1,-1,-1,-1,-1,-1,-1,-1,-1,-1,-1,-1,-1],"split_conditions":[7.421031E-1,5.0808698E-2,3.4531602E-1,-5.322438E-2,1.7921693E2,1E0,7.28738E1,6.436293E1,2.7172863E-1,2.7172863E-1,7.1307516E-1,1E0,2.1900523E-1,1.6672745E-2,-1.5654522E-1,2.7172863E-1,-2.1828952E-1,5.0677814E0,5.485724E1,7.8893507E-1,8.21504E1,1.4018402E-1,1.8320389E-1,1.5036781E2,3.6624017E-1,2.8114337E-1,1.5036781E2,9.6703285E-1,2.7172863E-1,9.5898306E-1,1E0,6.9254135E1,-1.8206151E-1,4.4069025E-1,9.172963E-1,3.901935E-2,1.2041709E-1,4.762293E0,8.39208E-2,1.2385296E-1,9.6541315E-2,6.735713E1,6.2103236E-1,5.8981452E-2,3.0817514E2,2.9484064E2,-5.065155E-1,5.9765095E-1,1.9339657E1,2.7515516E-1,1.712867E2,9.461439E1,9.0270597E-1,5.258588E-1,4.3373263E-1,4.8593143E1,8.318857E0,5.848018E-1,6.121989E1,-3.0725726E-1,1E0,2.6558035E1,2.8717223E-1,-1.6284911E-1,8.095893E-2,-1.6149123E-1,2.787988E-2,-8.0638714E-2,-1.3967687E-1,-1.1803683E-1,-7.523256E-2,-6.136491E-3,3.448528E-1,-1.617822E-1,-8.466602E-2,-1.2699535E-1,-4.4880994E-2,4.7300406E-2,1.7939262E-1,-2.6090946E-2,5.271368E-2,-1.6016541E-1,-8.783573E-2,7.156696E-2,-5.625662E-2,-8.421747E-2,6.1362077E-2,2.157338E-1,6.691667E-2,3.232075E-2,-5.2659106E-2,-5.8067627E-2,1.8889587E-1,1.6210842E-1,-2.1164907E-2,3.0795094E-1,8.5357316E-2,1.1079336E-1,2.157652E-1,-5.0908178E-2,1.2685917E-1,-1.4082009E-1,4.0802263E-2,1.7709857E-1,3.29259E-2,-1.605997E-2,-1.7041335E-1,4.3838315E-2,-8.552208E-2,-9.531649E-3,1.3293661E-1,9.886619E-2,3.3217725E-1,3.4919733E-1,1.317017E-1,-1.7024699E-1,-3.400607E-2,8.426477E-2,2.0275769E-1,3.1104216E-1,1.6522872E-1,3.3797908E-1,2.1598013E-1,2.920312E-1,8.669295E-2],"split_indices":[1,1,3,1,2,5,2,2,2,2,0,4,6,6,6,2,1,0,2,0,2,1,3,2,6,3,2,1,2,1,5,0,0,3,6,3,3,0,3,1,1,2,6,3,2,2,6,6,0,3,2,2,1,6,0,2,2,0,2,6,5,0,6,0,0,0,0,0,0,0,0,0,0,0,0,0,0,0,0,0,0,0,0,0,0,0,0,0,0,0,0,0,0,0,0,0,0,0,0,0,0,0,0,0,0,0,0,0,0,0,0,0,0,0,0,0,0,0,0,0,0,0,0,0,0],"split_type":[0,0,0,0,0,0,0,0,0,0,0,0,0,0,0,0,0,0,0,0,0,0,0,0,0,0,0,0,0,0,0,0,0,0,0,0,0,0,0,0,0,0,0,0,0,0,0,0,0,0,0,0,0,0,0,0,0,0,0,0,0,0,0,0,0,0,0,0,0,0,0,0,0,0,0,0,0,0,0,0,0,0,0,0,0,0,0,0,0,0,0,0,0,0,0,0,0,0,0,0,0,0,0,0,0,0,0,0,0,0,0,0,0,0,0,0,0,0,0,0,0,0,0,0,0],"sum_hessian":[5.2223383E4,2.2975014E4,2.9248367E4,1.6368601E4,6.606414E3,5.6320703E3,2.3616297E4,1.398135E4,2.3872512E3,4.1640728E3,2.4423413E3,4.519049E3,1.1130215E3,7.6696606E2,2.2849332E4,1.283609E4,1.1452598E3,7.6680505E2,1.6204462E3,9.4364014E2,3.2204329E3,9.501725E2,1.4921687E3,2.3541077E3,2.1649414E3,3.623293E2,7.506922E2,3.6509488E2,4.018712E2,1.0837314E3,2.17656E4,8.332107E2,1.2002879E4,5.6650745E2,5.7875226E2,7.418963E2,2.490878E1,7.760525E2,8.443937E2,2.6562817E2,6.7801196E2,1.2410334E3,1.9793994E3,7.988722E1,8.702853E2,1.1518005E3,3.4036823E2,4.2894794E2,1.9251597E3,1.4588777E3,7.060637E2,1.6194281E2,2.003865E2,3.070257E2,4.4366647E2,3.100536E2,5.5041267E1,3.5602535E1,3.6626868E2,8.1290717E2,2.7082425E2,1.9982969E4,1.7826317E3,8.271303E2,6.0803566E0,5.6260016E2,3.907303E0,2.5850946E2,3.2024283E2,3.5296463E2,3.8893167E2,2.2776924E1,2.1318545E0,7.523533E2,2.3699203E1,6.466856E2,1.9770802E2,9.301662E1,1.7261156E2,2.5016454E2,4.2784744E2,9.7683746E2,2.6419592E2,1.0933031E3,8.860963E2,4.513291E1,3.475431E1,7.0650854E2,1.6377676E2,9.95872E2,1.559285E2,3.5336197E1,3.0503204E2,3.2653955E2,1.0240839E2,1.8205093E3,1.04650505E2,5.866652E2,8.722124E2,3.554689E2,3.5059482E2,3.1979998E1,1.2996281E2,1.325032E2,6.788329E1,1.005645E2,2.0646118E2,1.8102078E2,2.626457E2,2.137951E2,9.625849E1,8.164259E0,4.687701E1,1.0802972E1,2.4799562E1,3.0201688E2,6.425178E1,1.5754272E2,6.5536444E2,2.4898506E2,2.1839201E1,1.9524865E4,4.5810388E2,1.4271426E3,3.554892E2],"tree_param":{"num_deleted":"0","num_feature":"7","num_nodes":"125","size_leaf_vector":"1"}},{"base_weights":[-3.8188532E-1,-4.407795E-1,1.6025102E-1,-5.614214E-1,-3.6003864E-1,3.1685627E-1,-3.2035875E-1,-4.0932316E-1,-5.890273E-1,-1.303856E-1,-5.3996575E-1,9.766283E-2,5.8690006E-1,-8.4172264E-2,-4.7643965E-1,-4.7639167E-1,-7.8284845E-2,-4.8928502E-1,-5.9530824E-1,-1.1700618E-2,-2.9666874E-1,-2.4493964E-1,-5.554517E-1,3.2085305E-1,-1.2340358E-1,4.1502368E-1,7.681501E-1,-2.4638087E-1,1.631971E-1,-3.3919597E-1,-5.516427E-1,-5.363585E-1,-4.1444945E-1,3.8793925E-3,-1.5808153E-1,-5.3092843E-1,-3.6541468E-1,-6.030394E-1,-5.4664963E-1,9.5636286E-2,-2.3190448E-1,-4.0971127E-1,-2.0510928E-1,-1.4021708E-1,-4.317466E-1,-4.6912092E-1,-5.903329E-1,-1.6158748E-1,3.6702356E-1,1.1649897E-1,-3.9659816E-1,5.057719E-1,-6.560103E-2,8.006357E-1,4.0883285E-1,-9.178755E-2,-4.021664E-1,-2.939852E-1,3.387831E-1,-4.5392063E-1,-7.408418E-2,1.1740137E-1,-5.561143E-1,-1.8059784E-1,-1.5002762E-1,-1.3250689E-1,-6.461971E-2,-5.8462486E-2,4.5344707E-2,-1.720654E-1,-1.445787E-1,-1.1811013E-1,-1.1623072E-2,-1.823858E-1,-1.7068242E-1,-1.7545298E-1,-1.5212607E-1,-1.04645394E-1,4.6822418E-2,-1.079441E-1,-3.1444006E-2,-1.1014523E-1,-1.4483012E-1,-1.397763E-1,-2.0008009E-2,-1.8615203E-2,-9.5523305E-2,-8.5652746E-2,-1.4846966E-1,-1.5808296E-1,-9.9163935E-2,-1.7042209E-1,-1.825075E-1,1.7277563E-1,3.5952434E-2,1.5261276E-1,-4.669664E-3,-1.4378183E-1,-4.757064E-2,2.0064196E-1,9.1735736E-2,-1.5849537E-1,1.8762028E-2,1.19903944E-1,2.4907164E-1,1.9224332E-1,-8.6676076E-2,1.0883947E-1,-5.8411937E-2,-1.618419E-1,-6.1615825E-2,-1.1461814E-1,2.6719108E-1,2.9863678E-2,2.2997124E-1,1.1846398E-1,-1.4429179E-1,-1.18545674E-1,4.7047358E-2,-1.747517E-1,-1.3192822E-1],"categories":[],"categories_nodes":[],"categories_segments":[],"categories_sizes":[],"default_left":[0,0,0,0,0,0,0,0,0,0,0,0,0,0,0,0,0,0,0,0,0,0,0,0,0,0,0,0,0,0,0,0,0,0,0,0,0,0,0,0,0,0,0,0,0,0,0,0,0,0,0,0,0,0,0,0,0,0,0,0,0,0,0,0,0,0,0,0,0,0,0,0,0,0,0,0,0,0,0,0,0,0,0,0,0,0,0,0,0,0,0,0,0,0,0,0,0,0,0,0,0,0,0,0,0,0,0,0,0,0,0,0,0,0,0,0,0,0,0,0,0],"id":6,"left_children":[1,3,5,7,9,11,13,15,17,19,21,23,25,27,29,31,33,35,37,39,41,43,45,47,49,51,53,55,57,59,61,63,65,67,-1,69,71,73,75,77,79,81,83,85,87,89,91,-1,93,95,97,99,101,103,105,107,109,111,113,115,117,-1,119,-1,-1,-1,-1,-1,-1,-1,-1,-1,-1,-1,-1,-1,-1,-1,-1,-1,-1,-1,-1,-1,-1,-1,-1,-1,-1,-1,-1,-1,-1,-1,-1,-1,-1,-1,-1,-1,-1,-1,-1,-1,-1,-1,-1,-1,-1,-1,-1,-1,-1,-1,-1,-1,-1,-1,-1,-1,-1],"loss_changes":[1.3976636E3,3.843955E2,3.2298715E2,6.621924E1,9.7741504E2,1.9149417E2,3.8844666E1,5.4020874E1,8.100586E0,2.0511197E2,6.046289E1,8.823135E1,4.484247E1,1.6929726E1,6.3657227E0,7.297394E0,1.5167059E1,3.928238E0,4.4086914E0,1.4339105E2,4.471768E1,1.2915157E1,3.766992E1,3.5504128E1,5.8947845E1,3.258174E1,7.8951416E0,6.0951233E0,1.3529669E1,6.8808784E0,1.9403534E0,2.1392822E0,5.328171E0,1.0236088E1,0E0,9.680481E-1,1.8722286E0,1.4731445E0,2.3292236E0,1.0961548E2,3.2280365E1,5.84256E0,8.6377815E1,5.9208574E0,2.0546608E0,2.8921387E1,3.253662E0,0E0,4.3560547E1,2.4833475E1,8.197578E0,2.0266205E1,7.113174E0,7.3237E0,9.969701E0,6.1103206E0,3.3077736E0,5.239848E0,1.2342141E1,3.8288918E0,5.241212E0,0E0,9.937439E-1,0E0,0E0,0E0,0E0,0E0,0E0,0E0,0E0,0E0,0E0,0E0,0E0,0E0,0E0,0E0,0E0,0E0,0E0,0E0,0E0,0E0,0E0,0E0,0E0,0E0,0E0,0E0,0E0,0E0,0E0,0E0,0E0,0E0,0E0,0E0,0E0,0E0,0E0,0E0,0E0,0E0,0E0,0E0,0E0,0E0,0E0,0E0,0E0,0E0,0E0,0E0,0E0,0E0,0E0,0E0,0E0,0E0,0E0],"parents":[2147483647,0,0,1,1,2,2,3,3,4,4,5,5,6,6,7,7,8,8,9,9,10,10,11,11,12,12,13,13,14,14,15,15,16,16,17,17,18,18,19,19,20,20,21,21,22,22,23,23,24,24,25,25,26,26,27,27,28,28,29,29,30,30,31,31,32,32,33,33,35,35,36,36,37,37,38,38,39,39,40,40,41,41,42,42,43,43,44,44,45,45,46,46,48,48,49,49,50,50,51,51,52,52,53,53,54,54,55,55,56,56,57,57,58,58,59,59,60,60,62,62],"right_children":[2,4,6,8,10,12,14,16,18,20,22,24,26,28,30,32,34,36,38,40,42,44,46,48,50,52,54,56,58,60,62,64,66,68,-1,70,72,74,76,78,80,82,84,86,88,90,92,-1,94,96,98,100,102,104,106,108,110,112,114,116,118,-1,120,-1,-1,-1,-1,-1,-1,-1,-1,-1,-1,-1,-1,-1,-1,-1,-1,-1,-1,-1,-1,-1,-1,-1,-1,-1,-1,-1,-1,-1,-1,-1,-1,-1,-1,-1,-1,-1,-1,-1,-1,-1,-1,-1,-1,-1,-1,-1,-1,-1,-1,-1,-1,-1,-1,-1,-1,-1,-1],"split_conditions":[1E0,4.8593143E1,4.4894153E-1,2.7172863E-1,3.7296584E-1,1.536406E2,5.903165E-1,1.7782754E-1,-1.0318912E-1,6.5484715E-1,-1.5654522E-1,5.3084E-1,7.277709E-1,1.7014188E2,7.329868E-1,-1.3742487E-2,1.9339657E1,2.2474813E-1,1.7829226E1,2.9822496E-1,1.2385296E-1,5.4961616E-1,5.082644E-1,-3.7834257E-1,1.7907943E-1,8.636078E-1,3.252961E2,1.188877E-2,9.431277E-1,1.7641205E2,-6.06609E-1,-2.3015118E-1,7.036151E-2,3.3961388E-1,-1.5808153E-1,8.318857E0,9.443607E-1,-9.585068E-2,-3.2312757E-1,-8.7064646E-2,1E0,1.8182272E2,1E0,4.762293E0,9.538034E-1,1E0,9.7309095E-1,-1.6158748E-1,2.8114337E-1,7.4152416E-1,1.1230316E2,2.7789092E-1,8.699471E-2,1.6116806E2,3.2875174E-1,9.0540955E1,6.974224E-1,5.5017823E-1,8.814698E-1,-1.7650019E-1,1E0,1.1740137E-1,1.1272622E-1,-1.8059784E-1,-1.5002762E-1,-1.3250689E-1,-6.461971E-2,-5.8462486E-2,4.5344707E-2,-1.720654E-1,-1.445787E-1,-1.1811013E-1,-1.1623072E-2,-1.823858E-1,-1.7068242E-1,-1.7545298E-1,-1.5212607E-1,-1.04645394E-1,4.6822418E-2,-1.079441E-1,-3.1444006E-2,-1.1014523E-1,-1.4483012E-1,-1.397763E-1,-2.0008009E-2,-1.8615203E-2,-9.5523305E-2,-8.5652746E-2,-1.4846966E-1,-1.5808296E-1,-9.9163935E-2,-1.7042209E-1,-1.825075E-1,1.7277563E-1,3.5952434E-2,1.5261276E-1,-4.669664E-3,-1.4378183E-1,-4.757064E-2,2.0064196E-1,9.1735736E-2,-1.5849537E-1,1.8762028E-2,1.19903944E-1,2.4907164E-1,1.9224332E-1,-8.6676076E-2,1.0883947E-1,-5.8411937E-2,-1.618419E-1,-6.1615825E-2,-1.1461814E-1,2.6719108E-1,2.9863678E-2,2.2997124E-1,1.1846398E-1,-1.4429179E-1,-1.18545674E-1,4.7047358E-2,-1.747517E-1,-1.3192822E-1],"split_indices":[5,2,3,2,3,2,3,1,6,6,6,6,0,2,3,1,0,1,2,3,1,3,3,1,3,6,2,6,1,2,6,1,3,1,0,2,1,1,1,1,4,2,4,0,1,4,1,0,3,6,2,3,3,2,3,2,0,6,0,6,4,0,6,0,0,0,0,0,0,0,0,0,0,0,0,0,0,0,0,0,0,0,0,0,0,0,0,0,0,0,0,0,0,0,0,0,0,0,0,0,0,0,0,0,0,0,0,0,0,0,0,0,0,0,0,0,0,0,0,0,0],"split_type":[0,0,0,0,0,0,0,0,0,0,0,0,0,0,0,0,0,0,0,0,0,0,0,0,0,0,0,0,0,0,0,0,0,0,0,0,0,0,0,0,0,0,0,0,0,0,0,0,0,0,0,0,0,0,0,0,0,0,0,0,0,0,0,0,0,0,0,0,0,0,0,0,0,0,0,0,0,0,0,0,0,0,0,0,0,0,0,0,0,0,0,0,0,0,0,0,0,0,0,0,0,0,0,0,0,0,0,0,0,0,0,0,0,0,0,0,0,0,0,0,0],"sum_hessian":[4.377133E4,3.9482402E4,4.288926E3,1.5827386E4,2.3655016E4,3.2351143E3,1.0538115E3,2.4338088E3,1.3393577E4,1.0392322E4,1.3262694E4,1.7864343E3,1.4486799E3,4.1991794E2,6.338936E2,2.0234235E3,4.1038544E2,7.98132E2,1.2595444E4,6.064699E3,4.327623E3,6.622806E2,1.2600413E4,8.887224E2,8.977119E2,7.4525604E2,7.034239E2,2.5361673E2,1.6630121E2,2.2633972E2,4.075539E2,1.0242137E3,9.992098E2,3.477006E2,6.2684845E1,5.948619E2,2.0327011E2,1.0858755E4,1.7366897E3,4.0776443E3,1.9870549E3,1.9350579E3,2.392565E3,4.2549942E2,2.3678116E2,3.6301855E3,8.970228E3,4.4763855E1,8.4395856E2,4.7828516E2,4.194268E2,6.2684686E2,1.1840914E2,6.439745E2,5.9449448E1,1.2809311E2,1.2552362E2,4.595958E1,1.2034164E2,1.5747968E2,6.886004E1,1.5151724E0,4.0603873E2,3.589659E2,6.652478E2,8.778557E2,1.2135405E2,1.4784564E2,1.9985497E2,3.124059E2,2.82456E2,1.8688312E2,1.6386993E1,9.476451E3,1.3823043E3,8.7662244E2,8.600672E2,4.8754526E2,3.5900989E3,9.8942755E2,9.976273E2,1.2265347E3,7.0852313E2,8.287041E2,1.563861E3,2.9669824E2,1.288012E2,7.307865E1,1.637025E2,2.5594246E3,1.070761E3,4.0282756E3,4.941952E3,4.5668295E2,3.872756E2,1.19761345E2,3.585238E2,3.1055014E2,1.08876656E2,3.44035E2,2.8281186E2,2.500246E1,9.3406685E1,4.5273502E1,5.98701E2,4.4677402E1,1.4772044E1,2.3180655E1,1.0491246E2,7.290883E1,5.2614784E1,4.340961E1,2.5499706E0,7.797008E1,4.237156E1,4.444026E0,1.5303566E2,2.8508698E1,4.0351345E1,3.2770294E2,7.833578E1],"tree_param":{"num_deleted":"0","num_feature":"7","num_nodes":"121","size_leaf_vector":"1"}},{"base_weights":[3.555737E-1,1.0052412E0,-3.235453E-1,1.0209751E0,-8.6872205E-2,6.0477144E-1,-4.5050433E-1,1.0571157E0,5.80437E-1,-2.7008316E-1,1.714345E-1,-2.333904E-1,7.6358426E-1,-1.6759187E-1,-5.4305786E-1,1.0838106E0,8.7277234E-1,6.8237823E-1,3.9367774E-1,-1.4858057E-1,-4.0318623E-1,-1.0947402E-1,2.5870165E-1,-2.5529987E-3,-4.0945876E-1,9.4631827E-1,2.9678172E-1,1.3638341E-1,-3.5671282E-1,-5.666155E-1,-3.2614386E-1,1.0904622E0,7.1440095E-1,9.0572345E-1,3.5497355E-1,6.468505E-1,1.1562889E0,5.240432E-1,2.085382E-1,2.1436119E-1,-2.3339355E-1,-4.307693E-1,1.1495087E-1,4.4653688E-2,-4.0117294E-1,-1.2281704E-1,2.939951E-1,-1.17427304E-1,2.4531496E-1,-3.268874E-1,-5.195088E-1,6.9387215E-1,1.0711871E0,-1.3810228E-1,9.200634E-1,-2.2480834E-1,7.562808E-1,-1.6556232E-1,-4.782975E-1,-4.9840266E-1,-6.014113E-1,-4.6604687E-1,4.4607E-1,3.3137044E-1,2.9119822E-1,2.710284E-1,1.8043867E-1,2.4585205E-1,3.031941E-1,1.1775928E-2,1.7594744E-1,7.823771E-2,2.202636E-1,3.6384594E-1,8.575855E-2,1.0285305E-1,2.040378E-1,5.6400627E-2,2.9909465E-1,1.7168382E-1,-2.4041237E-2,-1.2463553E-1,-2.3611328E-2,-6.644406E-2,-1.438098E-1,1.7136453E-1,-7.397785E-2,1.5198332E-1,-3.090783E-2,-1.7917116E-1,-1.7775033E-2,7.545562E-2,1.933135E-1,6.353432E-2,-6.621497E-2,9.00566E-2,-1.519899E-1,-1.1748475E-1,-2.2335581E-2,-1.6014224E-1,1.3985872E-2,2.528966E-1,1.07801266E-1,2.2983651E-1,3.3273748E-1,-7.477374E-2,3.447765E-2,1.3679571E-1,3.1063783E-1,-9.420471E-2,-3.2445316E-3,1.8306434E-1,3.284202E-1,4.8141997E-2,-7.960722E-2,1.9107033E-2,-1.4800544E-1,-1.6577768E-1,8.056975E-2,-1.0457041E-1,-1.8141593E-1,-1.5441637E-1,-2.4316799E-2,3.88946E-1,-5.933267E-2],"categories":[],"categories_nodes":[],"categories_segments":[],"categories_sizes":[],"default_left":[0,0,0,0,0,0,0,0,0,0,0,0,0,0,0,0,0,0,0,0,0,0,0,0,0,0,0,0,0,0,0,0,0,0,0,0,0,0,0,0,0,0,0,0,0,0,0,0,0,0,0,0,0,0,0,0,0,0,0,0,0,0,0,0,0,0,0,0,0,0,0,0,0,0,0,0,0,0,0,0,0,0,0,0,0,0,0,0,0,0,0,0,0,0,0,0,0,0,0,0,0,0,0,0,0,0,0,0,0,0,0,0,0,0,0,0,0,0,0,0,0,0,0,0,0],"id":7,"left_children":[1,3,5,7,9,11,13,15,17,19,21,23,25,27,29,31,33,35,37,39,41,43,45,47,49,51,53,55,57,59,61,63,65,67,69,71,73,75,77,79,81,83,85,87,89,-1,91,93,95,97,99,101,103,105,107,109,111,113,115,117,119,121,123,-1,-1,-1,-1,-1,-1,-1,-1,-1,-1,-1,-1,-1,-1,-1,-1,-1,-1,-1,-1,-1,-1,-1,-1,-1,-1,-1,-1,-1,-1,-1,-1,-1,-1,-1,-1,-1,-1,-1,-1,-1,-1,-1,-1,-1,-1,-1,-1,-1,-1,-1,-1,-1,-1,-1,-1,-1,-1,-1,-1,-1,-1],"loss_changes":[2.303E4,4.584961E2,3.0081445E3,4.180957E2,1.8020365E1,4.0894055E2,5.8778564E2,1.1865625E2,3.7734375E1,3.539898E0,3.906793E0,1.9911463E1,2.1995764E2,3.1828845E2,8.62583E1,5.1375E1,5.2218994E1,2.0970398E1,1.6959587E1,3.680766E0,1.559309E0,1.7354994E0,2.9736977E0,6.093736E0,2.3557549E0,5.7733887E1,1.974077E2,4.7571344E2,7.923898E1,3.591504E1,1.7949994E2,3.4158203E1,7.5332336E0,2.5355957E1,1.3564018E1,4.0355682E1,4.0172806E0,1.1484886E1,4.5708475E0,2.4557703E0,2.6733246E0,9.161091E-1,1.1518749E0,1.8188585E0,8.567374E-1,0E0,1.5572233E0,5.0188913E0,2.9487386E0,2.609518E0,9.7559166E-1,3.046399E1,1.3493652E1,1.2109273E1,1.5553574E1,2.5629288E1,3.799875E1,4.326359E1,1.7046967E1,2.146023E2,8.236816E0,2.6296417E1,1.3991167E2,0E0,0E0,0E0,0E0,0E0,0E0,0E0,0E0,0E0,0E0,0E0,0E0,0E0,0E0,0E0,0E0,0E0,0E0,0E0,0E0,0E0,0E0,0E0,0E0,0E0,0E0,0E0,0E0,0E0,0E0,0E0,0E0,0E0,0E0,0E0,0E0,0E0,0E0,0E0,0E0,0E0,0E0,0E0,0E0,0E0,0E0,0E0,0E0,0E0,0E0,0E0,0E0,0E0,0E0,0E0,0E0,0E0,0E0,0E0,0E0,0E0,0E0],"parents":[2147483647,0,0,1,1,2,2,3,3,4,4,5,5,6,6,7,7,8,8,9,9,10,10,11,11,12,12,13,13,14,14,15,15,16,16,17,17,18,18,19,19,20,20,21,21,22,22,23,23,24,24,25,25,26,26,27,27,28,28,29,29,30,30,31,31,32,32,33,33,34,34,35,35,36,36,37,37,38,38,39,39,40,40,41,41,42,42,43,43,44,44,46,46,47,47,48,48,49,49,50,50,51,51,52,52,53,53,54,54,55,55,56,56,57,57,58,58,59,59,60,60,61,61,62,62],"right_children":[2,4,6,8,10,12,14,16,18,20,22,24,26,28,30,32,34,36,38,40,42,44,46,48,50,52,54,56,58,60,62,64,66,68,70,72,74,76,78,80,82,84,86,88,90,-1,92,94,96,98,100,102,104,106,108,110,112,114,116,118,120,122,124,-1,-1,-1,-1,-1,-1,-1,-1,-1,-1,-1,-1,-1,-1,-1,-1,-1,-1,-1,-1,-1,-1,-1,-1,-1,-1,-1,-1,-1,-1,-1,-1,-1,-1,-1,-1,-1,-1,-1,-1,-1,-1,-1,-1,-1,-1,-1,-1,-1,-1,-1,-1,-1,-1,-1,-1,-1,-1,-1,-1,-1,-1],"split_conditions":[1.5774852E-1,1.9339657E1,8.004591E1,5.0808698E-2,1.7047149E-1,2.7172863E-1,2.89547E-1,5.167693E1,1.5785565E0,6.9254135E1,1E0,3.3961388E-1,6.436293E1,1.536406E2,1E0,6.5456357E0,1E0,2.1021554E-1,9.6541315E-2,2.1900523E-1,9.9424005E-1,1.6543076E1,1.3068192E0,9.8740555E-2,7.305665E-1,5.837878E-2,3.6624017E-1,6.2577486E-1,1.5224332E-1,1.6531204E2,5.3084E-1,-5.322438E-2,3.2158393E-1,1.3956216E2,7.4152416E-1,6.6021526E-1,8.004591E1,4.208129E-2,2.0318E-1,1.2762907E-1,1.11611515E-1,3.419611E0,1.9127707E1,-2.775207E-1,-5.1247805E-1,-1.2281704E-1,6.454995E-1,1.7782754E-1,1.4669599E1,2.251059E-1,8.0432254E-1,4.255669E1,1.9399802E-1,9.378531E-2,4.5949867E-1,3.5503203E-1,7.865551E-1,1.8529485E2,3.704991E-1,5.0625247E-1,-3.0725726E-1,3.5503203E-1,1.552703E2,3.3137044E-1,2.9119822E-1,2.710284E-1,1.8043867E-1,2.4585205E-1,3.031941E-1,1.1775928E-2,1.7594744E-1,7.823771E-2,2.202636E-1,3.6384594E-1,8.575855E-2,1.0285305E-1,2.040378E-1,5.6400627E-2,2.9909465E-1,1.7168382E-1,-2.4041237E-2,-1.2463553E-1,-2.3611328E-2,-6.644406E-2,-1.438098E-1,1.7136453E-1,-7.397785E-2,1.5198332E-1,-3.090783E-2,-1.7917116E-1,-1.7775033E-2,7.545562E-2,1.933135E-1,6.353432E-2,-6.621497E-2,9.00566E-2,-1.519899E-1,-1.1748475E-1,-2.2335581E-2,-1.6014224E-1,1.3985872E-2,2.528966E-1,1.07801266E-1,2.2983651E-1,3.3273748E-1,-7.477374E-2,3.447765E-2,1.3679571E-1,3.1063783E-1,-9.420471E-2,-3.2445316E-3,1.8306434E-1,3.284202E-1,4.8141997E-2,-7.960722E-2,1.9107033E-2,-1.4800544E-1,-1.6577768E-1,8.056975E-2,-1.0457041E-1,-1.8141593E-1,-1.5441637E-1,-2.4316799E-2,3.88946E-1,-5.933267E-2],"split_indices":[1,0,2,1,3,2,3,2,0,0,4,1,2,2,5,0,5,3,1,6,6,2,2,3,1,6,6,6,3,2,6,1,6,2,6,6,2,3,3,3,3,2,2,6,1,0,6,1,0,3,6,2,3,6,1,6,1,2,1,6,6,6,2,0,0,0,0,0,0,0,0,0,0,0,0,0,0,0,0,0,0,0,0,0,0,0,0,0,0,0,0,0,0,0,0,0,0,0,0,0,0,0,0,0,0,0,0,0,0,0,0,0,0,0,0,0,0,0,0,0,0,0,0,0,0],"split_type":[0,0,0,0,0,0,0,0,0,0,0,0,0,0,0,0,0,0,0,0,0,0,0,0,0,0,0,0,0,0,0,0,0,0,0,0,0,0,0,0,0,0,0,0,0,0,0,0,0,0,0,0,0,0,0,0,0,0,0,0,0,0,0,0,0,0,0,0,0,0,0,0,0,0,0,0,0,0,0,0,0,0,0,0,0,0,0,0,0,0,0,0,0,0,0,0,0,0,0,0,0,0,0,0,0,0,0,0,0,0,0,0,0,0,0,0,0,0,0,0,0,0,0,0,0],"sum_hessian":[5.2196633E4,2.6676521E4,2.5520111E4,2.6297719E4,3.7880368E2,3.0698425E3,2.2450268E4,2.4302598E4,1.9951211E3,2.2158968E2,1.57214E2,4.8893497E2,2.5809077E3,5.534752E3,1.6915516E4,2.122422E4,3.0783755E3,1.2889197E3,7.0620135E2,1.16949295E2,1.0464039E2,3.720347E1,1.2001054E2,2.1200142E2,2.7693356E2,1.8540833E3,7.2682446E2,2.1228926E3,3.4118596E3,1.5256942E4,1.6585732E3,2.0846898E4,3.7732193E2,2.8934934E3,1.848821E2,1.2012318E3,8.768792E1,4.133275E2,2.9287384E2,2.1863018E1,9.508627E1,9.9511505E1,5.1288834E0,2.4895903E1,1.2307564E1,5.489865E0,1.1452067E2,1.4522377E2,6.677765E1,1.604883E2,1.16445274E2,6.157615E2,1.2383218E3,4.2857327E2,2.9825116E2,1.3417441E3,7.811484E2,1.3273754E3,2.0844841E3,5.1588867E3,1.0098056E4,1.4045123E3,2.5406088E2,1.8643508E4,2.2033906E3,1.3850504E2,2.388169E2,1.593176E3,1.3003174E3,7.871211E1,1.0616999E2,2.224021E2,9.788297E2,8.1970856E1,5.7170606E0,1.9275307E2,2.2057443E2,2.8664618E2,6.2276516E0,9.443116E0,1.2419901E1,4.2904716E1,5.2181557E1,1.9799482E1,7.971202E1,2.0110395E0,3.1178436E0,5.442074E0,1.9453829E1,7.3476167E0,4.959947E0,1.0367068E2,1.0849994E1,3.4431553E1,1.1079221E2,6.279588E1,3.9817693E0,1.272962E2,3.3192093E1,1.13632355E2,2.8129175E0,4.248622E2,1.9089925E2,1.3930856E2,1.0990132E3,2.9778494E2,1.3078833E2,6.0379597E1,2.3787158E2,9.466477E2,3.950964E2,5.476164E2,2.3353197E2,3.10933E2,1.0164423E3,5.624548E1,2.0282388E3,4.818704E3,3.401827E2,1.3180145E2,9.966255E3,1.2465714E3,1.5794089E2,1.09032616E2,1.4502826E2],"tree_param":{"num_deleted":"0","num_feature":"7","num_nodes":"125","size_leaf_vector":"1"}},{"base_weights":[-4.3226087E-1,-4.7099796E-1,3.1027067E-1,-4.1351748E-1,-5.4119986E-1,6.559754E-1,1.1506006E-1,-4.3487003E-1,-1.4590509E-1,-5.2189755E-1,-5.687736E-1,4.0099403E-1,7.0964503E-1,2.0000322E-1,-2.7943003E-1,-4.4593582E-1,-3.4560862E-1,-1.850753E-1,1.9156055E-1,-5.279669E-1,-3.5632834E-1,-3.6494073E-1,-1.7107698E-1,5.2280307E-1,1.250276E-1,8.274342E-1,5.9303236E-1,-2.1922203E-2,3.053044E-1,-4.5095953E-1,-1.0631997E-1,-3.8967928E-1,-4.5413664E-1,-4.2589635E-1,-1.9105569E-1,-2.3088229E-1,9.4468E-2,-1.3285369E-1,3.5606247E-1,-4.81572E-1,-5.384299E-1,-2.326577E-1,-4.3017215E-1,-4.1530883E-1,3.8362744E-1,1.902643E-1,6.1815846E-1,1.9857213E-1,-1.4906749E-1,7.605878E-1,2.8078702E-1,7.6084566E-1,4.975106E-1,2.0272362E-1,-1.768851E-1,4.1714397E-1,1.7147098E-1,-1.4797506E-1,-1.4830859E-1,-4.0309566E-1,5.5475496E-3,-1.06004305E-1,-1.3260582E-1,-1.3891183E-1,-1.1914405E-1,-6.304776E-2,-1.3149443E-1,7.3915556E-2,-8.482636E-2,-9.915303E-2,-5.1533576E-2,-3.0622313E-2,6.834307E-2,1.4062129E-1,-5.5296462E-2,6.5946735E-2,1.862271E-1,-1.5953279E-1,-1.20125555E-1,-1.5626335E-1,-1.6650836E-1,-8.9073785E-2,6.403447E-2,1.3775718E-1,-1.3393255E-1,7.7790916E-2,-1.3540962E-1,3.113999E-1,-1.07592374E-1,1.0673125E-1,-1.2592319E-1,2.2049293E-1,7.861498E-2,2.3357712E-2,1.841771E-1,-3.1699354E-3,2.332122E-1,1.3641472E-1,2.545951E-1,1.6288239E-1,3.3397306E-2,-6.2908724E-2,8.844164E-2,-1.5665948E-2,-1.0273211E-1,1.4202268E-1,6.4477555E-2,4.2671654E-2,1.6134979E-1,1.1807961E-1,-1.3253404E-1,1.3563547E-1,-1.4697279E-1,2.9782575E-2,-1.2758218E-1],"categories":[],"categories_nodes":[],"categories_segments":[],"categories_sizes":[],"default_left":[0,0,0,0,0,0,0,0,0,0,0,0,0,0,0,0,0,0,0,0,0,0,0,0,0,0,0,0,0,0,0,0,0,0,0,0,0,0,0,0,0,0,0,0,0,0,0,0,0,0,0,0,0,0,0,0,0,0,0,0,0,0,0,0,0,0,0,0,0,0,0,0,0,0,0,0,0,0,0,0,0,0,0,0,0,0,0,0,0,0,0,0,0,0,0,0,0,0,0,0,0,0,0,0,0,0,0,0,0,0,0,0,0,0,0],"id":8,"left_children":[1,3,5,7,9,11,13,15,17,19,21,23,25,27,29,31,33,35,37,39,41,43,-1,45,47,49,51,53,55,57,59,61,63,65,67,69,71,73,75,77,79,81,83,85,87,89,91,93,-1,95,-1,97,99,101,103,105,107,109,-1,111,113,-1,-1,-1,-1,-1,-1,-1,-1,-1,-1,-1,-1,-1,-1,-1,-1,-1,-1,-1,-1,-1,-1,-1,-1,-1,-1,-1,-1,-1,-1,-1,-1,-1,-1,-1,-1,-1,-1,-1,-1,-1,-1,-1,-1,-1,-1,-1,-1,-1,-1,-1,-1,-1,-1],"loss_changes":[1.0569609E3,1.4068799E2,1.22905014E2,1.09671875E2,8.067871E0,8.712463E0,3.9123775E1,1.7412598E1,1.8813091E1,9.114502E0,1.744873E0,3.8548126E0,6.951721E0,2.2438675E1,6.0980625E0,7.121338E0,2.431427E1,1.6326702E1,7.9577827E0,4.074951E0,2.9175186E0,2.0235162E0,0E0,2.4379406E0,1.7921957E0,1.2251892E0,4.0425644E0,1.0821546E1,9.67366E0,1.2899628E0,3.4657717E0,3.6845093E0,6.817871E0,3.372116E0,2.7103935E1,6.3870697E0,4.740158E0,1.6531563E0,3.420228E0,6.5193787E0,1.8308105E0,3.666923E0,3.1816368E0,1.2555571E0,2.138785E0,2.1084332E0,2.3944263E0,1.648135E0,0E0,2.2163239E0,0E0,2.252491E0,3.0738907E0,4.882666E0,3.7773237E0,3.9258118E0,3.1159182E0,2.4676306E0,0E0,2.3428636E0,3.1414535E0,0E0,0E0,0E0,0E0,0E0,0E0,0E0,0E0,0E0,0E0,0E0,0E0,0E0,0E0,0E0,0E0,0E0,0E0,0E0,0E0,0E0,0E0,0E0,0E0,0E0,0E0,0E0,0E0,0E0,0E0,0E0,0E0,0E0,0E0,0E0,0E0,0E0,0E0,0E0,0E0,0E0,0E0,0E0,0E0,0E0,0E0,0E0,0E0,0E0,0E0,0E0,0E0,0E0,0E0],"parents":[2147483647,0,0,1,1,2,2,3,3,4,4,5,5,6,6,7,7,8,8,9,9,10,10,11,11,12,12,13,13,14,14,15,15,16,16,17,17,18,18,19,19,20,20,21,21,23,23,24,24,25,25,26,26,27,27,28,28,29,29,30,30,31,31,32,32,33,33,34,34,35,35,36,36,37,37,38,38,39,39,40,40,41,41,42,42,43,43,44,44,45,45,46,46,47,47,49,49,51,51,52,52,53,53,54,54,55,55,56,56,57,57,59,59,60,60],"right_children":[2,4,6,8,10,12,14,16,18,20,22,24,26,28,30,32,34,36,38,40,42,44,-1,46,48,50,52,54,56,58,60,62,64,66,68,70,72,74,76,78,80,82,84,86,88,90,92,94,-1,96,-1,98,100,102,104,106,108,110,-1,112,114,-1,-1,-1,-1,-1,-1,-1,-1,-1,-1,-1,-1,-1,-1,-1,-1,-1,-1,-1,-1,-1,-1,-1,-1,-1,-1,-1,-1,-1,-1,-1,-1,-1,-1,-1,-1,-1,-1,-1,-1,-1,-1,-1,-1,-1,-1,-1,-1,-1,-1,-1,-1,-1,-1],"split_conditions":[1.4669599E1,7.661883E-1,2.0797019E-1,3.6334224E0,9.62873E-1,2.6558035E1,9.5898306E-1,1.9366074E0,9.954832E-1,5.0677814E0,7.022318E1,-1.0609263E-1,1.2041709E-1,3.6842686E1,4.9640713E1,1.5929496E-1,5.0808698E-2,9.619156E0,3.556274E-2,-6.687728E-2,8.9455473E-1,4.367572E-1,-1.7107698E-1,2.5324576E0,1.9182341E-1,1.2385296E-1,1E0,9.461439E1,3.872104E-1,5.610753E-1,1.664961E2,-5.664706E-1,1.7232295E2,3.362621E-2,4.5357905E-2,4.1037413E-1,3.159542E-1,9.9557334E-1,5.0677814E0,1.5686388E2,4.6476343E-1,4.4894153E-1,-6.06609E-1,-3.4338966E-1,1E0,2.0904927E0,2.0542067E1,6.370343E-1,-1.4906749E-1,7.036151E-2,2.8078702E-1,4.9640713E1,1.9399802E-1,-2.775207E-1,1E0,8.8208354E-1,5.8349586E-1,1.6116806E2,-1.4830859E-1,2.7172863E-1,9.7720814E-1,-1.06004305E-1,-1.3260582E-1,-1.3891183E-1,-1.1914405E-1,-6.304776E-2,-1.3149443E-1,7.3915556E-2,-8.482636E-2,-9.915303E-2,-5.1533576E-2,-3.0622313E-2,6.834307E-2,1.4062129E-1,-5.5296462E-2,6.5946735E-2,1.862271E-1,-1.5953279E-1,-1.20125555E-1,-1.5626335E-1,-1.6650836E-1,-8.9073785E-2,6.403447E-2,1.3775718E-1,-1.3393255E-1,7.7790916E-2,-1.3540962E-1,3.113999E-1,-1.07592374E-1,1.0673125E-1,-1.2592319E-1,2.2049293E-1,7.861498E-2,2.3357712E-2,1.841771E-1,-3.1699354E-3,2.332122E-1,1.3641472E-1,2.545951E-1,1.6288239E-1,3.3397306E-2,-6.2908724E-2,8.844164E-2,-1.5665948E-2,-1.0273211E-1,1.4202268E-1,6.4477555E-2,4.2671654E-2,1.6134979E-1,1.1807961E-1,-1.3253404E-1,1.3563547E-1,-1.4697279E-1,2.9782575E-2,-1.2758218E-1],"split_indices":[0,1,3,0,1,0,1,0,6,0,2,1,3,0,0,0,1,0,1,6,1,6,0,2,3,1,4,2,3,3,2,1,2,3,3,6,6,6,0,2,0,3,6,6,5,2,2,1,0,3,0,0,3,6,4,1,6,2,0,2,1,0,0,0,0,0,0,0,0,0,0,0,0,0,0,0,0,0,0,0,0,0,0,0,0,0,0,0,0,0,0,0,0,0,0,0,0,0,0,0,0,0,0,0,0,0,0,0,0,0,0,0,0,0,0],"split_type":[0,0,0,0,0,0,0,0,0,0,0,0,0,0,0,0,0,0,0,0,0,0,0,0,0,0,0,0,0,0,0,0,0,0,0,0,0,0,0,0,0,0,0,0,0,0,0,0,0,0,0,0,0,0,0,0,0,0,0,0,0,0,0,0,0,0,0,0,0,0,0,0,0,0,0,0,0,0,0,0,0,0,0,0,0,0,0,0,0,0,0,0,0,0,0,0,0,0,0,0,0,0,0,0,0,0,0,0,0,0,0,0,0,0,0],"sum_hessian":[3.6740527E4,3.4919195E4,1.821332E3,1.9202945E4,1.571625E4,6.564476E2,1.1648844E3,1.7783398E4,1.4195469E3,9.256436E3,6.459815E3,1.1561911E2,5.408285E2,9.589027E2,2.059817E2,1.5818389E4,1.9650088E3,1.2723184E3,1.4722856E2,8.927005E3,3.2943118E2,4.8442883E1,6.411372E3,7.959303E1,3.6026077E1,2.6602444E2,2.7480402E2,3.0882874E2,6.50074E2,1.0265697E2,1.0332474E2,2.0187224E3,1.3799666E4,1.2920529E3,6.72956E2,1.0933346E3,1.7898372E2,4.9601612E1,9.762695E1,1.6514031E3,7.2756016E3,1.2471471E2,2.0471648E2,4.580598E1,2.6369014E0,1.8404652E1,6.118838E1,3.2825085E1,3.2009923E0,1.6957825E2,9.644621E1,9.715549E1,1.7764851E2,1.2594346E2,1.8288527E2,3.5298273E2,2.9709125E2,1.3415461E1,8.924151E1,2.757284E1,7.575189E1,1.1961631E3,8.225594E2,1.1929029E4,1.8706371E3,7.130151E1,1.2207513E3,1.16329544E2,5.566264E2,4.0539355E2,6.879411E2,7.244157E1,1.0654216E2,3.2701764E0,4.6331436E1,6.566118E1,3.1965769E1,1.0168171E3,6.3458594E2,3.5519036E3,3.723698E3,1.09305336E2,1.5409367E1,3.1886501E0,2.0152783E2,2.009881E0,4.37961E1,1.189682E0,1.4472195E0,1.4804652E1,3.599999E0,4.5273075E1,1.5915309E1,2.6353464E1,6.471621E0,3.6205647E0,1.6595767E2,2.3032326E1,7.412316E1,1.585866E2,1.9061918E1,2.2754143E1,1.03189316E2,1.0507662E2,7.7808655E1,2.7509875E2,7.788398E1,2.7642355E2,2.0667702E1,4.598796E0,8.816665E0,2.1532202E0,2.541962E1,6.2848423E1,1.290347E1],"tree_param":{"num_deleted":"0","num_feature":"7","num_nodes":"115","size_leaf_vector":"1"}},{"base_weights":[2.858738E-1,-3.3818173E-1,6.9807416E-1,-5.3101444E-1,3.3399455E-2,4.4905233E-1,8.008587E-1,-5.5585724E-1,-3.8361812E-1,-7.424862E-2,2.4902129E-1,5.406167E-1,-1.8166592E-2,-1.7686082E-1,8.221013E-1,-5.6948096E-1,-4.1617218E-1,-2.8390855E-1,-4.4197598E-1,-1.7374656E-1,3.3639006E-2,-1.1620657E-1,3.2189134E-1,3.435336E-3,5.900993E-1,2.3511003E-1,-1.9246517E-1,5.9711844E-1,-2.9596403E-1,7.678732E-1,8.853037E-1,-4.9629003E-1,-1.7228486E-1,-5.178652E-1,-3.4989452E-1,-3.5898858E-1,-1.2106532E-1,-3.445649E-1,-4.8064604E-1,1.0073807E-1,-4.286619E-1,-8.308058E-2,2.4135728E-1,-8.73848E-2,-4.8547974E-1,4.7868752E-1,2.10165E-1,1.4333107E-1,-3.3667693E-1,7.144E-1,4.2096722E-1,-7.547851E-2,3.341391E-1,-3.7445226E-1,-7.069318E-2,4.524584E-1,8.7821364E-1,4.4139445E-2,-5.19729E-1,7.9040426E-1,5.0987077E-1,8.4579206E-1,8.95577E-1,-1.5120585E-1,7.920313E-2,-9.229114E-2,-1.6191429E-1,-7.8731924E-2,-1.3619493E-1,-7.106973E-2,-1.3768002E-1,-1.9471573E-2,-1.520854E-1,-4.6857268E-2,-1.18488625E-1,-1.602019E-1,-1.3003425E-1,-3.4512054E-2,5.9845835E-2,-1.4567626E-1,-7.230633E-2,1.641542E-2,-4.7165923E-2,1.0282607E-1,-4.0914256E-2,8.170507E-2,-3.8262513E-2,-2.6878161E-2,-1.7468368E-1,1.7057781E-1,3.4905758E-2,3.52617E-2,1.2003983E-1,-1.3227428E-2,1.06934465E-1,2.2306138E-1,-1.6615216E-1,6.114409E-2,2.2383323E-1,1.6558516E-1,5.2499216E-2,8.378211E-3,-9.815653E-2,1.4077994E-1,1.9998891E-2,-1.5432282E-2,-1.5695944E-1,-9.977978E-2,1.1054908E-2,1.784935E-1,-1.8149863E-3,3.2915133E-1,1.5985116E-1,-6.4869765E-3,2.281644E-1,-1.6040397E-1,1.5113252E-1,1.7182218E-1,2.4465078E-1,1.8359828E-1,6.1924007E-2,2.5873974E-1,1.8453863E-1,2.690495E-1,1.7598276E-1],"categories":[],"categories_nodes":[],"categories_segments":[],"categories_sizes":[],"default_left":[0,0,0,0,0,0,0,0,0,0,0,0,0,0,0,0,0,0,0,0,0,0,0,0,0,0,0,0,0,0,0,0,0,0,0,0,0,0,0,0,0,0,0,0,0,0,0,0,0,0,0,0,0,0,0,0,0,0,0,0,0,0,0,0,0,0,0,0,0,0,0,0,0,0,0,0,0,0,0,0,0,0,0,0,0,0,0,0,0,0,0,0,0,0,0,0,0,0,0,0,0,0,0,0,0,0,0,0,0,0,0,0,0,0,0,0,0,0,0,0,0,0,0,0,0],"id":9,"left_children":[1,3,5,7,9,11,13,15,17,19,21,23,25,27,29,31,33,35,37,39,41,43,45,47,49,51,53,55,57,59,61,63,-1,65,67,69,71,73,75,77,79,81,83,85,87,89,91,93,95,97,99,101,103,105,107,109,111,113,115,117,119,121,123,-1,-1,-1,-1,-1,-1,-1,-1,-1,-1,-1,-1,-1,-1,-1,-1,-1,-1,-1,-1,-1,-1,-1,-1,-1,-1,-1,-1,-1,-1,-1,-1,-1,-1,-1,-1,-1,-1,-1,-1,-1,-1,-1,-1,-1,-1,-1,-1,-1,-1,-1,-1,-1,-1,-1,-1,-1,-1,-1,-1,-1,-1],"loss_changes":[1.2959095E4,1.4359229E3,7.761758E2,4.8096436E1,1.5895839E2,3.793058E2,4.4613574E2,2.1244385E1,1.0965973E1,4.9042435E1,6.07294E1,1.9705127E2,6.422419E1,4.234608E1,7.1353516E1,3.3283691E0,6.6047363E0,8.5948105E0,4.3569183E0,1.6633519E2,5.3176327E1,4.002452E0,3.320851E1,2.984703E1,1.4240503E2,1.8266811E1,1.9069931E1,2.0968418E0,3.024451E1,6.5396484E1,3.1791992E0,3.8966064E0,0E0,1.6491623E0,5.4576874E0,5.785782E0,4.8315725E0,3.210781E0,1.926651E0,2.4424234E1,1.3047134E1,1.4356951E1,3.0267265E1,5.144969E0,9.9383736E-1,2.5679947E1,1.9520512E1,1.7768703E1,4.329969E1,6.3172974E1,9.262311E1,3.7623913E0,1.6228985E1,1.6559452E1,1.4588232E1,2.784727E0,9.110708E-1,7.4843917E0,3.9357986E0,5.639258E1,2.8134125E1,7.236206E0,2.4511719E0,0E0,0E0,0E0,0E0,0E0,0E0,0E0,0E0,0E0,0E0,0E0,0E0,0E0,0E0,0E0,0E0,0E0,0E0,0E0,0E0,0E0,0E0,0E0,0E0,0E0,0E0,0E0,0E0,0E0,0E0,0E0,0E0,0E0,0E0,0E0,0E0,0E0,0E0,0E0,0E0,0E0,0E0,0E0,0E0,0E0,0E0,0E0,0E0,0E0,0E0,0E0,0E0,0E0,0E0,0E0,0E0,0E0,0E0,0E0,0E0,0E0,0E0],"parents":[2147483647,0,0,1,1,2,2,3,3,4,4,5,5,6,6,7,7,8,8,9,9,10,10,11,11,12,12,13,13,14,14,15,15,16,16,17,17,18,18,19,19,20,20,21,21,22,22,23,23,24,24,25,25,26,26,27,27,28,28,29,29,30,30,31,31,33,33,34,34,35,35,36,36,37,37,38,38,39,39,40,40,41,41,42,42,43,43,44,44,45,45,46,46,47,47,48,48,49,49,50,50,51,51,52,52,53,53,54,54,55,55,56,56,57,57,58,58,59,59,60,60,61,61,62,62],"right_children":[2,4,6,8,10,12,14,16,18,20,22,24,26,28,30,32,34,36,38,40,42,44,46,48,50,52,54,56,58,60,62,64,-1,66,68,70,72,74,76,78,80,82,84,86,88,90,92,94,96,98,100,102,104,106,108,110,112,114,116,118,120,122,124,-1,-1,-1,-1,-1,-1,-1,-1,-1,-1,-1,-1,-1,-1,-1,-1,-1,-1,-1,-1,-1,-1,-1,-1,-1,-1,-1,-1,-1,-1,-1,-1,-1,-1,-1,-1,-1,-1,-1,-1,-1,-1,-1,-1,-1,-1,-1,-1,-1,-1,-1,-1,-1,-1,-1,-1,-1,-1,-1,-1,-1,-1],"split_conditions":[7.305665E-1,2.8717522E-2,4.0599737E-1,-6.915643E-2,1.8924007E2,1E0,5.805205E1,5.805205E1,9.940774E-1,8.410784E1,1.4018402E-1,8.906333E1,2.4426627E-1,2.7172863E-1,9.707555E-1,2.7172863E-1,-2.9552874E-1,7.28738E1,2.7172863E-1,2.7172863E-1,1.6408768E-1,3.252961E2,6.974224E-1,4.2598242E-1,1E0,1.0040955E2,1.5036781E2,9.528675E-1,-5.974306E-2,1E0,7.143758E-1,6.9254135E1,-1.7228486E-1,-2.1645889E-1,1.21081E2,2.7172863E-1,1E0,6.8980557E-1,3.2395763E1,4.5357905E-2,6.735713E1,6.2103236E-1,1E0,4.6476343E-1,2.7512437E-1,3.0817514E2,1.6628975E-1,7.5552505E1,5.186953E0,-1.654949E-1,2.6913777E-1,1.0485511E0,9.6554434E-1,4.863941E-1,2.2008976E-1,9.323983E-1,7.4258316E-1,9.684109E-1,2.6558035E1,-1.1928574E-1,1.8849187E-1,1E0,6.9254135E1,-1.5120585E-1,7.920313E-2,-9.229114E-2,-1.6191429E-1,-7.8731924E-2,-1.3619493E-1,-7.106973E-2,-1.3768002E-1,-1.9471573E-2,-1.520854E-1,-4.6857268E-2,-1.18488625E-1,-1.602019E-1,-1.3003425E-1,-3.4512054E-2,5.9845835E-2,-1.4567626E-1,-7.230633E-2,1.641542E-2,-4.7165923E-2,1.0282607E-1,-4.0914256E-2,8.170507E-2,-3.8262513E-2,-2.6878161E-2,-1.7468368E-1,1.7057781E-1,3.4905758E-2,3.52617E-2,1.2003983E-1,-1.3227428E-2,1.06934465E-1,2.2306138E-1,-1.6615216E-1,6.114409E-2,2.2383323E-1,1.6558516E-1,5.2499216E-2,8.378211E-3,-9.815653E-2,1.4077994E-1,1.9998891E-2,-1.5432282E-2,-1.5695944E-1,-9.977978E-2,1.1054908E-2,1.784935E-1,-1.8149863E-3,3.2915133E-1,1.5985116E-1,-6.4869765E-3,2.281644E-1,-1.6040397E-1,1.5113252E-1,1.7182218E-1,2.4465078E-1,1.8359828E-1,6.1924007E-2,2.5873974E-1,1.8453863E-1,2.690495E-1,1.7598276E-1],"split_indices":[1,1,3,1,2,5,2,2,6,2,1,2,6,2,1,2,1,2,2,2,3,2,0,6,4,2,2,1,6,5,3,0,0,6,2,2,5,0,2,3,2,6,5,0,6,2,3,2,2,6,6,0,0,6,3,1,3,1,0,6,6,5,0,0,0,0,0,0,0,0,0,0,0,0,0,0,0,0,0,0,0,0,0,0,0,0,0,0,0,0,0,0,0,0,0,0,0,0,0,0,0,0,0,0,0,0,0,0,0,0,0,0,0,0,0,0,0,0,0,0,0,0,0,0,0],"split_type":[0,0,0,0,0,0,0,0,0,0,0,0,0,0,0,0,0,0,0,0,0,0,0,0,0,0,0,0,0,0,0,0,0,0,0,0,0,0,0,0,0,0,0,0,0,0,0,0,0,0,0,0,0,0,0,0,0,0,0,0,0,0,0,0,0,0,0,0,0,0,0,0,0,0,0,0,0,0,0,0,0,0,0,0,0,0,0,0,0,0,0,0,0,0,0,0,0,0,0,0,0,0,0,0,0,0,0,0,0,0,0,0,0,0,0,0,0,0,0,0,0,0,0,0,0],"sum_hessian":[5.0376332E4,2.0038695E4,3.0337635E4,1.3192167E4,6.846529E3,8.865078E3,2.1472557E4,1.1287032E4,1.9051349E3,4.567089E3,2.2794397E3,7.4122817E3,1.4527964E3,4.564506E2,2.1016105E4,1.0281212E4,1.0058204E3,7.0553345E2,1.1996014E3,2.3756067E3,2.1914822E3,3.790466E2,1.9003932E3,6.252845E2,6.7869976E3,5.9208185E2,8.607145E2,6.033789E1,3.961127E2,1.1318182E4,9.697925E3,6.3941376E2,9.641799E3,3.9418677E2,6.116336E2,4.8206805E2,2.2346542E2,3.4370587E2,8.5589557E2,1.1441875E3,1.2314193E3,1.40346E3,7.880223E2,3.52751E2,2.6295574E1,7.8934534E2,1.1110479E3,4.4345868E2,1.8182582E2,3.910107E3,2.8768906E3,1.4319908E2,4.4888278E2,3.4421436E2,5.1650006E2,4.1559666E1,1.8778223E1,1.5751152E2,2.3860118E2,1.0407264E4,9.1091815E2,2.0184062E3,7.6795186E3,6.333124E2,6.1013827E0,3.8530766E1,3.55656E2,3.342877E2,2.7734592E2,2.1851147E2,2.6355658E2,1.9609488E2,2.7370552E1,7.341082E1,2.7029504E2,3.9688397E2,4.5901157E2,3.5917496E2,7.850125E2,9.435744E2,2.878449E2,4.9104385E2,9.124161E2,6.21331E2,1.6669127E2,3.4842407E1,3.179086E2,5.5446854E0,2.0750889E1,6.319678E2,1.5737758E2,7.4796686E2,3.6308093E2,2.3637529E2,2.0708339E2,3.002946E1,1.5179637E2,2.2907738E2,3.6810295E3,1.87642E3,1.0004706E3,1.02131226E2,4.106786E1,2.977213E2,1.5116148E2,1.08955734E2,2.3525864E2,1.4973882E2,3.6676126E2,3.1477695E1,1.0081971E1,1.0160229E1,8.617993E0,1.4515668E2,1.23548355E1,2.356367E2,2.9644697E0,1.0784341E3,9.328829E3,6.8079224E2,2.3012595E2,1.8797855E3,1.3862071E2,7.646565E3,3.2953728E1],"tree_param":{"num_deleted":"0","num_feature":"7","num_nodes":"125","size_leaf_vector":"1"}},{"base_weights":[-3.3130828E-1,-3.897528E-1,1.3841304E-1,-5.224817E-1,-3.0837503E-1,2.3297906E-1,-3.869478E-1,-3.5899702E-1,-5.5480665E-1,-1.07665926E-1,-4.9812996E-1,8.50607E-2,4.3719977E-1,-2.4131526E-1,-5.130247E-1,-4.2566502E-1,-7.125828E-2,-4.5201778E-1,-5.613989E-1,-7.7758874E-3,-2.5823817E-1,-3.8856772E-1,-5.44564E-1,-5.64733E-2,2.74348E-1,2.5249848E-1,5.5173635E-1,-3.9170924E-1,5.1031973E-2,9.962886E-2,-5.179431E-1,-1.646018E-1,-3.9131486E-1,1.0050597E-3,-1.381066E-1,-4.6476346E-1,4.160737E-2,-5.6914496E-1,-5.152093E-1,7.981777E-2,-1.8788761E-1,-3.6369434E-1,-1.7555661E-1,-4.661077E-1,-2.3394823E-1,-3.951342E-1,-5.583478E-1,6.544156E-2,-2.1800455E-1,-4.373559E-1,3.139046E-1,-3.616092E-1,2.976541E-1,6.0703826E-1,3.8557795E-1,2.9059416E-1,-4.179557E-1,-3.4995064E-1,1.5861684E-1,-1.6399065E-1,-3.9940622E-1,-1.250419E-1,-2.0845076E-2,-5.0117664E-2,3.524771E-2,-1.4835872E-1,-1.09594606E-1,2.902148E-1,-3.9954707E-2,-1.722237E-1,-1.5811367E-1,-1.7112839E-1,-1.4533034E-1,-1.05906814E-1,3.7671E-2,-9.238801E-2,-2.2731509E-2,-1.7581642E-1,-1.035089E-1,-1.3979423E-2,-1.2214359E-1,-1.0919545E-1,-1.6319136E-1,-9.482169E-2,6.5746424E-3,-8.245173E-2,-1.4996617E-1,-1.605974E-1,-1.731279E-1,1.03712715E-1,-2.373951E-2,-2.4923778E-3,-1.2518075E-1,-3.172593E-3,-1.5774308E-1,1.2025372E-1,3.8499117E-2,-7.4383594E-2,-1.7427781E-1,1.2609114E-1,1.8698467E-2,1.0717507E-1,1.9890398E-1,3.132912E-2,1.5699515E-1,1.9347896E-1,-1.3530259E-1,8.748335E-2,-1.2792096E-1,1.3611355E-1,-1.2764195E-1,-7.5510535E-3,1.3779226E-1,-1.560253E-1,-1.0056376E-2],"categories":[],"categories_nodes":[],"categories_segments":[],"categories_sizes":[],"default_left":[0,0,0,0,0,0,0,0,0,0,0,0,0,0,0,0,0,0,0,0,0,0,0,0,0,0,0,0,0,0,0,0,0,0,0,0,0,0,0,0,0,0,0,0,0,0,0,0,0,0,0,0,0,0,0,0,0,0,0,0,0,0,0,0,0,0,0,0,0,0,0,0,0,0,0,0,0,0,0,0,0,0,0,0,0,0,0,0,0,0,0,0,0,0,0,0,0,0,0,0,0,0,0,0,0,0,0,0,0,0,0,0,0,0,0],"id":10,"left_children":[1,3,5,7,9,11,13,15,17,19,21,23,25,27,29,31,33,35,37,39,41,43,45,47,49,51,53,55,57,-1,59,-1,61,63,-1,65,67,69,71,73,75,77,79,81,83,85,87,89,91,93,95,97,99,101,103,105,107,109,111,-1,113,-1,-1,-1,-1,-1,-1,-1,-1,-1,-1,-1,-1,-1,-1,-1,-1,-1,-1,-1,-1,-1,-1,-1,-1,-1,-1,-1,-1,-1,-1,-1,-1,-1,-1,-1,-1,-1,-1,-1,-1,-1,-1,-1,-1,-1,-1,-1,-1,-1,-1,-1,-1,-1,-1],"loss_changes":[1.0567559E3,3.6959277E2,2.1173608E2,6.855249E1,8.082733E2,1.0903938E2,1.1814896E1,4.1223236E1,7.105713E0,1.551509E2,5.5289062E1,5.6150623E1,3.1942749E1,1.3368492E1,1.6169586E0,7.161804E0,1.1408854E1,4.169693E0,3.3564453E0,9.786981E1,3.580768E1,3.8865417E1,1.5556152E1,2.3640474E1,2.5379112E1,1.6255295E1,8.359497E0,3.7135658E0,4.542653E0,0E0,9.584656E-1,0E0,1.1195541E1,6.7383037E0,0E0,1.7231445E0,2.964195E0,1.5102539E0,2.2313232E0,8.269865E1,2.7301498E1,7.297699E0,6.890922E1,1.7009735E1,2.286351E1,8.057198E0,2.7165527E0,2.7761562E1,2.1568146E1,1.792407E0,1.366217E1,8.6147976E-1,1.5645416E1,9.54953E0,9.095192E0,2.3983612E0,1.2845917E0,1.5474784E0,4.581747E0,0E0,3.1238165E0,0E0,0E0,0E0,0E0,0E0,0E0,0E0,0E0,0E0,0E0,0E0,0E0,0E0,0E0,0E0,0E0,0E0,0E0,0E0,0E0,0E0,0E0,0E0,0E0,0E0,0E0,0E0,0E0,0E0,0E0,0E0,0E0,0E0,0E0,0E0,0E0,0E0,0E0,0E0,0E0,0E0,0E0,0E0,0E0,0E0,0E0,0E0,0E0,0E0,0E0,0E0,0E0,0E0,0E0],"parents":[2147483647,0,0,1,1,2,2,3,3,4,4,5,5,6,6,7,7,8,8,9,9,10,10,11,11,12,12,13,13,14,14,15,15,16,16,17,17,18,18,19,19,20,20,21,21,22,22,23,23,24,24,25,25,26,26,27,27,28,28,30,30,32,32,33,33,35,35,36,36,37,37,38,38,39,39,40,40,41,41,42,42,43,43,44,44,45,45,46,46,47,47,48,48,49,49,50,50,51,51,52,52,53,53,54,54,55,55,56,56,57,57,58,58,60,60],"right_children":[2,4,6,8,10,12,14,16,18,20,22,24,26,28,30,32,34,36,38,40,42,44,46,48,50,52,54,56,58,-1,60,-1,62,64,-1,66,68,70,72,74,76,78,80,82,84,86,88,90,92,94,96,98,100,102,104,106,108,110,112,-1,114,-1,-1,-1,-1,-1,-1,-1,-1,-1,-1,-1,-1,-1,-1,-1,-1,-1,-1,-1,-1,-1,-1,-1,-1,-1,-1,-1,-1,-1,-1,-1,-1,-1,-1,-1,-1,-1,-1,-1,-1,-1,-1,-1,-1,-1,-1,-1,-1,-1,-1,-1,-1,-1,-1],"split_conditions":[1E0,4.255669E1,5.4961616E-1,2.7172863E-1,3.8010922E-1,1.6409642E2,7.329868E-1,1.7782754E-1,-9.851217E-2,6.5484715E-1,5.082644E-1,6.974224E-1,4.906912E-1,1.7641205E2,-6.06609E-1,-1.6910587E-1,1.1683816E1,6.22874E-1,1.5384273E1,2.9822496E-1,1.2385296E-1,1E0,-1.08268835E-1,5.7837903E-1,-3.6504412E-1,1.09895095E-1,3.3216155E-1,-1.7650019E-1,9.613426E-1,9.962886E-2,1.1272622E-1,-1.646018E-1,9.140126E-2,3.3961388E-1,-1.381066E-1,2.2474813E-1,6.295726E-1,2.3246858E0,-5.53044E-1,-1.813806E-1,1E0,-4.0888664E-1,2.3257957E-1,3.5503203E-1,9.455122E-1,9.663872E-1,9.7309095E-1,2.4005853E-1,1.7907943E-1,2.9331088E-1,6.5484715E-1,9.9382037E-1,3.255487E-1,4.0030715E-1,9.241248E-1,1.3407314E2,3.2536902E0,-9.851217E-2,8.722372E-1,-1.6399065E-1,1E0,-1.250419E-1,-2.0845076E-2,-5.0117664E-2,3.524771E-2,-1.4835872E-1,-1.09594606E-1,2.902148E-1,-3.9954707E-2,-1.722237E-1,-1.5811367E-1,-1.7112839E-1,-1.4533034E-1,-1.05906814E-1,3.7671E-2,-9.238801E-2,-2.2731509E-2,-1.7581642E-1,-1.035089E-1,-1.3979423E-2,-1.2214359E-1,-1.0919545E-1,-1.6319136E-1,-9.482169E-2,6.5746424E-3,-8.245173E-2,-1.4996617E-1,-1.605974E-1,-1.731279E-1,1.03712715E-1,-2.373951E-2,-2.4923778E-3,-1.2518075E-1,-3.172593E-3,-1.5774308E-1,1.2025372E-1,3.8499117E-2,-7.4383594E-2,-1.7427781E-1,1.2609114E-1,1.8698467E-2,1.0717507E-1,1.9890398E-1,3.132912E-2,1.5699515E-1,1.9347896E-1,-1.3530259E-1,8.748335E-2,-1.2792096E-1,1.3611355E-1,-1.2764195E-1,-7.5510535E-3,1.3779226E-1,-1.560253E-1,-1.0056376E-2],"split_indices":[5,2,3,2,3,2,3,1,6,6,3,0,0,2,6,1,0,3,2,3,1,4,6,6,1,3,3,6,1,0,6,0,3,1,0,1,3,0,1,1,4,1,3,6,1,1,1,3,3,6,6,6,3,1,1,2,2,6,0,0,4,0,0,0,0,0,0,0,0,0,0,0,0,0,0,0,0,0,0,0,0,0,0,0,0,0,0,0,0,0,0,0,0,0,0,0,0,0,0,0,0,0,0,0,0,0,0,0,0,0,0,0,0,0,0],"split_type":[0,0,0,0,0,0,0,0,0,0,0,0,0,0,0,0,0,0,0,0,0,0,0,0,0,0,0,0,0,0,0,0,0,0,0,0,0,0,0,0,0,0,0,0,0,0,0,0,0,0,0,0,0,0,0,0,0,0,0,0,0,0,0,0,0,0,0,0,0,0,0,0,0,0,0,0,0,0,0,0,0,0,0,0,0,0,0,0,0,0,0,0,0,0,0,0,0,0,0,0,0,0,0,0,0,0,0,0,0,0,0,0,0,0,0],"sum_hessian":[3.849082E4,3.4231746E4,4.259074E3,1.3008758E4,2.122299E4,3.6098503E3,6.492239E2,2.1495298E3,1.0859229E4,1.0314559E4,1.0908431E4,2.09433E3,1.5155201E3,3.0260086E2,3.4662302E2,1.7447893E3,4.0474054E2,6.5866693E2,1.0200562E4,6.201511E3,4.113048E3,3.249803E3,7.658628E3,1.1987224E3,8.956077E2,5.8130853E2,9.342117E2,1.9958647E2,1.0301437E2,1.6206994E0,3.4500232E2,3.7760733E2,1.367182E3,3.421868E2,6.2553722E1,6.4214484E2,1.6522104E1,8.725896E3,1.474665E3,4.1727407E3,2.0287704E3,1.806082E3,2.306966E3,2.1630452E3,1.0867579E3,6.4929877E2,7.009329E3,6.8347107E2,5.152513E2,4.6627506E1,8.489802E2,3.9336193E1,5.4197235E2,6.989345E2,2.3527713E2,7.0201015E0,1.9256638E2,2.1315601E1,8.169877E1,2.7485977E2,7.0142525E1,1.2665654E3,1.006166E2,1.3990396E2,2.0228284E2,4.9116327E2,1.5098158E2,1.9038413E0,1.4618264E1,7.799206E3,9.2669006E2,5.2146924E2,9.531958E2,3.9826114E2,3.7744795E3,9.7878125E2,1.0499891E3,1.375068E2,1.6685752E3,1.4825947E3,8.243713E2,9.3820483E2,1.2248402E3,8.2252E2,2.6423795E2,3.0391537E2,3.453834E2,3.158972E3,3.8503572E3,2.321117E2,4.513594E2,2.5156151E2,2.636898E2,8.197103E0,3.84304E1,5.7733844E2,2.7164178E2,2.7311947E1,1.2024245E1,3.5576492E2,1.862074E2,1.29303E2,5.6963153E2,7.794244E1,1.5733469E2,4.8385925E0,2.181509E0,1.8711832E0,1.9069519E2,1.400863E0,1.9914738E1,5.127497E1,3.0423801E1,5.2428753E1,1.7713772E1],"tree_param":{"num_deleted":"0","num_feature":"7","num_nodes":"115","size_leaf_vector":"1"}},{"base_weights":[2.8337398E-1,7.3930186E-1,-2.940095E-1,7.7438414E-1,3.897076E-1,4.377153E-1,-4.1850728E-1,7.8885907E-1,1.1532123E-1,4.727783E-1,2.32034E-1,-2.6104796E-1,5.325743E-1,-1.6909108E-1,-5.0521195E-1,8.111869E-1,6.396074E-1,3.4967834E-1,-1.1017965E-1,5.878826E-1,3.719144E-1,3.4731513E-1,5.7573814E-2,-7.096735E-2,-3.826222E-1,2.751023E-1,7.648561E-1,7.1100995E-2,-3.5757482E-1,-4.0953162E-1,-5.594724E-1,7.0257473E-1,8.2463586E-1,6.636214E-1,2.6162377E-1,4.4194603E-1,1.436571E-1,-2.5395215E-1,9.461581E-2,3.3232486E-1,8.5224557E-1,6.394543E-2,5.1711977E-1,3.6888134E-1,-1.8488403E-1,2.5513679E-2,7.82518E-1,-2.0964162E-1,2.5133878E-1,-2.96879E-1,-1.4558008E-1,6.044556E-1,-1.6039883E-1,5.830455E-1,8.5586554E-1,-2.0035546E-1,5.4323727E-1,-2.1817672E-1,-4.6464035E-1,-5.117215E-1,2.8448406E-1,-5.7528186E-1,-4.8503658E-1,2.6088783E-1,1.9701394E-1,2.4915677E-1,2.0812081E-1,2.4088098E-1,1.8607895E-1,2.8220443E-2,1.5982245E-1,2.069505E-1,1.1114384E-1,1.7190406E-1,1.4198679E-2,2.1626751E-1,-8.038395E-2,-1.663747E-1,4.0642694E-2,1.4675139E-1,5.520467E-2,2.73299E-1,2.2055237E-1,-3.299463E-3,2.5512278E-1,1.8527144E-1,9.027868E-2,7.417114E-2,1.4270978E-1,-8.808462E-2,2.1083856E-1,3.7673894E-2,-1.8531574E-2,-1.0876558E-1,2.760243E-1,-1.0549485E-1,-2.4059938E-2,-9.68747E-3,1.4867234E-1,-1.12909935E-1,-1.5568756E-2,1.9933492E-1,1.1013408E-1,3.954074E-2,-8.7920465E-2,4.166639E-2,2.1153562E-1,2.6054206E-1,3.3994917E-2,-8.728051E-2,-7.869251E-3,1.13120094E-1,2.3301375E-1,-7.9766616E-2,8.920728E-2,-1.1432885E-2,-1.44959E-1,-1.5807605E-1,-6.460035E-2,2.436979E-1,-5.347554E-2,-8.292176E-2,-1.7295241E-1,-1.5253995E-1,-3.9513938E-2],"categories":[],"categories_nodes":[],"categories_segments":[],"categories_sizes":[],"default_left":[0,0,0,0,0,0,0,0,0,0,0,0,0,0,0,0,0,0,0,0,0,0,0,0,0,0,0,0,0,0,0,0,0,0,0,0,0,0,0,0,0,0,0,0,0,0,0,0,0,0,0,0,0,0,0,0,0,0,0,0,0,0,0,0,0,0,0,0,0,0,0,0,0,0,0,0,0,0,0,0,0,0,0,0,0,0,0,0,0,0,0,0,0,0,0,0,0,0,0,0,0,0,0,0,0,0,0,0,0,0,0,0,0,0,0,0,0,0,0,0,0,0,0,0,0],"id":11,"left_children":[1,3,5,7,9,11,13,15,17,19,21,23,25,27,29,31,33,35,37,39,41,43,45,47,49,51,53,55,57,59,61,63,65,67,69,71,73,75,77,79,81,83,85,87,89,91,93,95,97,99,-1,101,103,105,107,109,111,113,115,117,119,121,123,-1,-1,-1,-1,-1,-1,-1,-1,-1,-1,-1,-1,-1,-1,-1,-1,-1,-1,-1,-1,-1,-1,-1,-1,-1,-1,-1,-1,-1,-1,-1,-1,-1,-1,-1,-1,-1,-1,-1,-1,-1,-1,-1,-1,-1,-1,-1,-1,-1,-1,-1,-1,-1,-1,-1,-1,-1,-1,-1,-1,-1,-1],"loss_changes":[1.3222235E4,3.4391113E2,2.0191327E3,2.4322363E2,3.3442047E1,2.1377063E2,4.0951123E2,8.2649414E1,2.9067636E1,1.9247925E1,1.7796352E1,8.890627E0,1.695235E2,2.2128513E2,7.273511E1,3.1124023E1,2.9348022E1,5.0613365E0,8.288897E0,5.2505493E1,4.005121E1,6.1879807E0,8.199741E0,6.8359303E0,1.9253998E0,1.9338977E2,2.4179443E1,2.7562732E2,4.077121E1,3.611079E2,1.027124E1,1.7802856E1,1.4302734E1,1.7970215E1,8.850793E0,3.0346756E0,3.4832249E0,2.4467478E0,3.1656141E0,9.189953E0,1.9674988E0,1.700498E1,1.3039871E1,6.545166E0,2.274873E0,2.974945E0,2.6875887E0,1.9323192E0,3.2101333E0,2.5254498E0,0E0,1.0684998E1,2.2565022E1,2.7048279E1,9.18689E0,2.153201E1,3.016446E1,2.9387684E1,1.2234009E1,1.9872437E1,1.5985469E2,2.5488281E0,1.2987732E1,0E0,0E0,0E0,0E0,0E0,0E0,0E0,0E0,0E0,0E0,0E0,0E0,0E0,0E0,0E0,0E0,0E0,0E0,0E0,0E0,0E0,0E0,0E0,0E0,0E0,0E0,0E0,0E0,0E0,0E0,0E0,0E0,0E0,0E0,0E0,0E0,0E0,0E0,0E0,0E0,0E0,0E0,0E0,0E0,0E0,0E0,0E0,0E0,0E0,0E0,0E0,0E0,0E0,0E0,0E0,0E0,0E0,0E0,0E0,0E0,0E0,0E0],"parents":[2147483647,0,0,1,1,2,2,3,3,4,4,5,5,6,6,7,7,8,8,9,9,10,10,11,11,12,12,13,13,14,14,15,15,16,16,17,17,18,18,19,19,20,20,21,21,22,22,23,23,24,24,25,25,26,26,27,27,28,28,29,29,30,30,31,31,32,32,33,33,34,34,35,35,36,36,37,37,38,38,39,39,40,40,41,41,42,42,43,43,44,44,45,45,46,46,47,47,48,48,49,49,51,51,52,52,53,53,54,54,55,55,56,56,57,57,58,58,59,59,60,60,61,61,62,62],"right_children":[2,4,6,8,10,12,14,16,18,20,22,24,26,28,30,32,34,36,38,40,42,44,46,48,50,52,54,56,58,60,62,64,66,68,70,72,74,76,78,80,82,84,86,88,90,92,94,96,98,100,-1,102,104,106,108,110,112,114,116,118,120,122,124,-1,-1,-1,-1,-1,-1,-1,-1,-1,-1,-1,-1,-1,-1,-1,-1,-1,-1,-1,-1,-1,-1,-1,-1,-1,-1,-1,-1,-1,-1,-1,-1,-1,-1,-1,-1,-1,-1,-1,-1,-1,-1,-1,-1,-1,-1,-1,-1,-1,-1,-1,-1,-1,-1,-1,-1,-1,-1,-1,-1,-1,-1],"split_conditions":[2.0067807E-1,5.0808698E-2,8.410784E1,9.619156E0,1.5785565E0,2.7172863E-1,2.89547E-1,5.167693E1,2.6558035E1,5.805205E1,1.090867E-1,3.704991E-1,2.2567312E-1,1.626461E2,1.6531204E2,2.7172863E-1,1E0,6.2577486E-1,1.7472336E-1,2.7172863E-1,8.855916E-1,1E0,2.0085905E-1,1.0824609E-1,7.305665E-1,5.805205E1,2.5337222E-1,6.5484715E-1,1.6628975E-1,3.717558E-1,1E0,-2.5636703E-1,3.6334224E0,-3.0931205E-1,1.2762907E-1,-8.205975E-1,2.0152838E0,6.892192E-2,1.6015152E0,8.533967E-2,2.0542067E1,3.438407E2,2.0632985E2,4.3651424E-2,5.912243E0,1.4018402E-1,2.7172863E-1,1.1363904E0,5.6903815E-1,2.251059E-1,-1.4558008E-1,4.255669E1,7.022318E1,4.5711732E-1,1.4669599E1,3.5503203E-1,1E0,3.0817514E2,4.5949867E-1,2.504724E-1,1.3590619E2,-4.359246E-1,6.5484715E-1,2.6088783E-1,1.9701394E-1,2.4915677E-1,2.0812081E-1,2.4088098E-1,1.8607895E-1,2.8220443E-2,1.5982245E-1,2.069505E-1,1.1114384E-1,1.7190406E-1,1.4198679E-2,2.1626751E-1,-8.038395E-2,-1.663747E-1,4.0642694E-2,1.4675139E-1,5.520467E-2,2.73299E-1,2.2055237E-1,-3.299463E-3,2.5512278E-1,1.8527144E-1,9.027868E-2,7.417114E-2,1.4270978E-1,-8.808462E-2,2.1083856E-1,3.7673894E-2,-1.8531574E-2,-1.0876558E-1,2.760243E-1,-1.0549485E-1,-2.4059938E-2,-9.68747E-3,1.4867234E-1,-1.12909935E-1,-1.5568756E-2,1.9933492E-1,1.1013408E-1,3.954074E-2,-8.7920465E-2,4.166639E-2,2.1153562E-1,2.6054206E-1,3.3994917E-2,-8.728051E-2,-7.869251E-3,1.13120094E-1,2.3301375E-1,-7.9766616E-2,8.920728E-2,-1.1432885E-2,-1.44959E-1,-1.5807605E-1,-6.460035E-2,2.436979E-1,-5.347554E-2,-8.292176E-2,-1.7295241E-1,-1.5253995E-1,-3.9513938E-2],"split_indices":[1,1,2,0,0,2,3,2,0,2,1,1,6,2,2,2,5,6,3,2,6,5,3,3,1,2,3,6,3,6,4,1,0,1,3,1,2,3,2,1,2,2,2,3,0,1,2,0,6,3,0,2,2,6,0,6,5,2,1,6,2,6,6,0,0,0,0,0,0,0,0,0,0,0,0,0,0,0,0,0,0,0,0,0,0,0,0,0,0,0,0,0,0,0,0,0,0,0,0,0,0,0,0,0,0,0,0,0,0,0,0,0,0,0,0,0,0,0,0,0,0,0,0,0,0],"split_type":[0,0,0,0,0,0,0,0,0,0,0,0,0,0,0,0,0,0,0,0,0,0,0,0,0,0,0,0,0,0,0,0,0,0,0,0,0,0,0,0,0,0,0,0,0,0,0,0,0,0,0,0,0,0,0,0,0,0,0,0,0,0,0,0,0,0,0,0,0,0,0,0,0,0,0,0,0,0,0,0,0,0,0,0,0,0,0,0,0,0,0,0,0,0,0,0,0,0,0,0,0,0,0,0,0,0,0,0,0,0,0,0,0,0,0,0,0,0,0,0,0,0,0,0,0],"sum_hessian":[5.0226E4,2.806463E4,2.2161371E4,2.5504047E4,2.5605825E3,3.2219746E3,1.8939396E4,2.495575E4,5.482971E2,1.6757245E3,8.84858E2,3.8490234E2,2.8370723E3,4.886308E3,1.4053088E4,2.1704371E4,3.25138E3,2.685988E2,2.7969833E2,7.8036084E2,8.9536365E2,5.321976E2,3.526604E2,1.5076537E2,2.34137E2,1.3466108E3,1.4904615E3,2.1487266E3,2.7375815E3,5.0886133E3,8.964474E3,2.3972974E3,1.9307074E4,3.0564424E3,1.9493741E2,1.8472403E2,8.387476E1,1.641912E2,1.15507126E2,3.9793616E2,3.824247E2,2.8735248E2,6.080111E2,5.1176627E2,2.0431334E1,3.387161E2,1.39442835E1,1.0565582E2,4.5109535E1,1.2969221E2,1.0444477E2,7.6652704E2,5.800838E2,4.9967023E2,9.907913E2,1.3646765E3,7.8405E2,1.1905442E3,1.5470374E3,4.435739E3,6.5287463E2,7.3885024E3,1.5759719E3,5.1251013E2,1.8847871E3,1.847107E4,8.360033E2,7.2130066E2,2.3351418E3,1.2131161E2,7.362581E1,3.9401928E1,1.453221E2,1.44627E1,6.941206E1,1.6088077E0,1.6258238E2,6.0949636E0,1.0941216E2,1.922847E2,2.0565144E2,2.5012169E2,1.3230301E2,2.6325266E2,2.409983E1,4.1385806E2,1.9415309E2,2.4082704E2,2.709392E2,1.8798008E1,1.6333258E0,1.5760072E2,1.8111539E2,1.3201185E0,1.2624165E1,4.956379E1,5.6092037E1,2.1273016E1,2.383652E1,9.751584E1,3.2176376E1,6.1042676E2,1.5610023E2,1.81138E2,3.9894577E2,1.081844E2,3.9148584E2,9.740824E2,1.67089E1,8.972542E2,4.6742227E2,4.5957425E2,3.2447574E2,1.0901377E3,1.0040651E2,6.462543E1,1.482412E3,4.218631E3,2.1710825E2,3.0462906E2,3.4824554E2,3.1113937E1,7.357388E3,1.477552E3,9.841992E1],"tree_param":{"num_deleted":"0","num_feature":"7","num_nodes":"125","size_leaf_vector":"1"}},{"base_weights":[-3.8845453E-1,-4.321969E-1,2.1628994E-1,-3.7031016E-1,-5.11031E-1,4.7901767E-1,7.574301E-2,-3.933644E-1,-1.8573508E-1,-4.9447682E-1,-5.487714E-1,2.3420455E-1,5.830364E-1,-1.6904294E-1,1.9069856E-1,-4.0324304E-1,-3.3094418E-1,9.9792995E-2,-2.3801762E-1,-4.3921712E-1,-5.0724995E-1,-5.21512E-2,-1.647727E-1,3.9672846E-1,1.4085594E-1,6.7916054E-1,4.8144203E-1,-8.122188E-3,-3.9965984E-1,2.4327359E-1,-2.4469607E-1,-3.4412584E-1,-4.160503E-1,-2.658225E-1,-4.545989E-1,-1.5071939E-1,2.6565164E-1,-3.164297E-1,-1.8269941E-1,-4.9809924E-1,-3.4961045E-1,-4.1989082E-1,-5.1158124E-1,1.308452E-1,-1.2313468E-1,-5.0763886E-2,5.2878183E-1,2.7600387E-1,-1.8779168E-2,6.0883784E-1,7.8444976E-1,-1.6835326E-1,4.8980355E-1,-7.426768E-2,3.533755E-1,1.09418996E-1,-4.0884742E-1,3.2406363E-1,1.4850567E-1,-1.3146994E-1,-1.4301002E-1,-9.281449E-2,-1.2193387E-1,-1.2632908E-1,-1.06750876E-1,-1.2796849E-1,-5.3382657E-2,-1.3858768E-1,-8.810065E-3,-5.421075E-2,1.6804698E-1,5.3987697E-2,1.7348665E-1,-9.7701244E-2,5.7382204E-2,-8.79628E-2,-3.6915917E-2,-2.4370277E-2,-1.5186208E-1,-7.215449E-2,-1.2593627E-1,-1.2753235E-1,2.02132E-1,-1.5424405E-1,-1.0875041E-1,5.448931E-2,-1.415218E-1,1.7138062E-1,-9.1409996E-2,6.1585445E-2,2.4294193E-1,-3.8381603E-2,8.912775E-2,1.9891869E-1,8.810708E-2,1.5472147E-1,2.5349006E-1,1.8510008E-1,1.2570275E-1,3.1064758E-2,-5.1000968E-2,1.5475415E-1,-7.293453E-2,-1.2723674E-1,-3.585462E-3,1.2895751E-1,5.70612E-2,3.8848862E-2,1.494927E-1,-6.288144E-2,6.121567E-2],"categories":[],"categories_nodes":[],"categories_segments":[],"categories_sizes":[],"default_left":[0,0,0,0,0,0,0,0,0,0,0,0,0,0,0,0,0,0,0,0,0,0,0,0,0,0,0,0,0,0,0,0,0,0,0,0,0,0,0,0,0,0,0,0,0,0,0,0,0,0,0,0,0,0,0,0,0,0,0,0,0,0,0,0,0,0,0,0,0,0,0,0,0,0,0,0,0,0,0,0,0,0,0,0,0,0,0,0,0,0,0,0,0,0,0,0,0,0,0,0,0,0,0,0,0,0,0,0,0,0,0],"id":12,"left_children":[1,3,5,7,9,11,13,15,17,19,21,23,25,27,29,31,33,35,37,39,41,43,-1,45,47,49,51,53,55,57,59,61,63,65,67,69,71,73,75,77,79,81,83,-1,-1,85,87,89,91,93,95,-1,97,99,101,-1,103,105,107,109,-1,-1,-1,-1,-1,-1,-1,-1,-1,-1,-1,-1,-1,-1,-1,-1,-1,-1,-1,-1,-1,-1,-1,-1,-1,-1,-1,-1,-1,-1,-1,-1,-1,-1,-1,-1,-1,-1,-1,-1,-1,-1,-1,-1,-1,-1,-1,-1,-1,-1,-1],"loss_changes":[8.2999365E2,1.4254883E2,7.812956E1,6.968652E1,7.765625E0,1.864563E1,3.8872757E1,8.852539E0,2.722564E1,6.0959473E0,8.865967E-1,3.306199E0,4.721451E0,1.6385014E1,2.1569721E1,9.37915E0,1.5957962E1,1.1787064E1,6.6241302E0,8.733093E0,2.5339355E0,1.0209488E0,0E0,4.7718287E0,3.0754209E0,1.4711533E0,2.4958534E0,6.2701163E0,1.4236069E0,6.375065E0,2.6099882E0,4.735901E0,2.9898682E0,1.8433517E1,2.1378021E0,2.5152469E0,4.462781E0,3.045559E0,5.9332676E0,3.3941193E0,5.0499344E0,2.2763214E0,2.4592285E0,0E0,0E0,1.9649128E0,2.3727474E0,2.745389E0,2.3199353E0,2.5781937E0,1.2217255E0,0E0,2.02211E0,3.789338E0,4.0564866E0,0E0,1.0849342E0,6.3196297E0,2.514966E0,1.8714504E0,0E0,0E0,0E0,0E0,0E0,0E0,0E0,0E0,0E0,0E0,0E0,0E0,0E0,0E0,0E0,0E0,0E0,0E0,0E0,0E0,0E0,0E0,0E0,0E0,0E0,0E0,0E0,0E0,0E0,0E0,0E0,0E0,0E0,0E0,0E0,0E0,0E0,0E0,0E0,0E0,0E0,0E0,0E0,0E0,0E0,0E0,0E0,0E0,0E0,0E0,0E0],"parents":[2147483647,0,0,1,1,2,2,3,3,4,4,5,5,6,6,7,7,8,8,9,9,10,10,11,11,12,12,13,13,14,14,15,15,16,16,17,17,18,18,19,19,20,20,21,21,23,23,24,24,25,25,26,26,27,27,28,28,29,29,30,30,31,31,32,32,33,33,34,34,35,35,36,36,37,37,38,38,39,39,40,40,41,41,42,42,45,45,46,46,47,47,48,48,49,49,50,50,52,52,53,53,54,54,56,56,57,57,58,58,59,59],"right_children":[2,4,6,8,10,12,14,16,18,20,22,24,26,28,30,32,34,36,38,40,42,44,-1,46,48,50,52,54,56,58,60,62,64,66,68,70,72,74,76,78,80,82,84,-1,-1,86,88,90,92,94,96,-1,98,100,102,-1,104,106,108,110,-1,-1,-1,-1,-1,-1,-1,-1,-1,-1,-1,-1,-1,-1,-1,-1,-1,-1,-1,-1,-1,-1,-1,-1,-1,-1,-1,-1,-1,-1,-1,-1,-1,-1,-1,-1,-1,-1,-1,-1,-1,-1,-1,-1,-1,-1,-1,-1,-1,-1,-1],"split_conditions":[9.619156E0,7.661883E-1,1.9613117E-1,2.7260728E0,9.707555E-1,2.6558035E1,2.6558035E1,1.7232295E2,4.6560794E-2,-6.687728E-2,2.7172863E-1,1.1334719E-1,1.2041709E-1,9.074462E-1,9.650625E-1,2.0780958E-1,1.4254576E-1,4.342638E-2,3.813641E0,1.552703E2,7.022318E1,9.7577775E-1,-1.647727E-1,2.0152838E0,-2.9552874E-1,1.1230316E2,-8.345258E-1,6.35546E-1,3.071611E-1,3.872104E-1,9.7720814E-1,-5.2674776E-1,1.9808123E0,7.5352944E-2,4.2879146E-1,1E0,5.0677814E0,3.252961E2,4.1037413E-1,2.0904927E0,1E0,9.701964E-1,5.4759307E0,1.308452E-1,-1.2313468E-1,9.167314E-4,2.680209E2,-4.6867403E-1,6.370343E-1,4.255669E1,1.9461167E-1,-1.6835326E-1,1E0,-5.912533E-1,1.8357765E2,1.09418996E-1,3.0817514E2,1E0,6.5484715E-1,2.2756529E2,-1.4301002E-1,-9.281449E-2,-1.2193387E-1,-1.2632908E-1,-1.06750876E-1,-1.2796849E-1,-5.3382657E-2,-1.3858768E-1,-8.810065E-3,-5.421075E-2,1.6804698E-1,5.3987697E-2,1.7348665E-1,-9.7701244E-2,5.7382204E-2,-8.79628E-2,-3.6915917E-2,-2.4370277E-2,-1.5186208E-1,-7.215449E-2,-1.2593627E-1,-1.2753235E-1,2.02132E-1,-1.5424405E-1,-1.0875041E-1,5.448931E-2,-1.415218E-1,1.7138062E-1,-9.1409996E-2,6.1585445E-2,2.4294193E-1,-3.8381603E-2,8.912775E-2,1.9891869E-1,8.810708E-2,1.5472147E-1,2.5349006E-1,1.8510008E-1,1.2570275E-1,3.1064758E-2,-5.1000968E-2,1.5475415E-1,-7.293453E-2,-1.2723674E-1,-3.585462E-3,1.2895751E-1,5.70612E-2,3.8848862E-2,1.494927E-1,-6.288144E-2,6.121567E-2],"split_indices":[0,1,3,0,1,0,0,2,3,6,2,3,3,1,1,0,3,1,0,2,2,1,0,2,1,2,1,6,3,3,1,1,0,1,3,5,0,2,6,2,4,1,0,0,0,1,2,1,1,2,6,0,4,1,2,0,2,4,6,2,0,0,0,0,0,0,0,0,0,0,0,0,0,0,0,0,0,0,0,0,0,0,0,0,0,0,0,0,0,0,0,0,0,0,0,0,0,0,0,0,0,0,0,0,0,0,0,0,0,0,0],"split_type":[0,0,0,0,0,0,0,0,0,0,0,0,0,0,0,0,0,0,0,0,0,0,0,0,0,0,0,0,0,0,0,0,0,0,0,0,0,0,0,0,0,0,0,0,0,0,0,0,0,0,0,0,0,0,0,0,0,0,0,0,0,0,0,0,0,0,0,0,0,0,0,0,0,0,0,0,0,0,0,0,0,0,0,0,0,0,0,0,0,0,0,0,0,0,0,0,0,0,0,0,0,0,0,0,0,0,0,0,0,0,0],"sum_hessian":[3.1371703E4,2.9255855E4,2.1158481E3,1.6392797E4,1.286306E4,7.3656366E2,1.3792844E3,1.4571607E4,1.8211887E3,8.950978E3,3.912082E3,2.2060672E2,5.15957E2,4.406006E2,9.386839E2,1.2575885E4,1.9957227E3,2.817226E2,1.5394662E3,1.6871847E3,7.2637925E3,3.8122058E0,3.9082698E3,7.9297104E1,1.413096E2,2.621949E2,2.5376207E2,2.6012485E2,1.8047574E2,8.379415E2,1.0074233E2,2.2442898E3,1.0331596E4,1.3093268E3,6.863959E2,1.122587E2,1.694639E2,6.3485535E2,9.0461084E2,1.0153933E3,6.717914E2,3.477581E2,6.9160347E3,1.5214415E0,2.2907643E0,1.8208643E1,6.1088467E1,7.612922E1,6.518038E1,1.6126714E2,1.0092775E2,1.4929142E0,2.5226917E2,2.2056183E2,3.9563023E1,1.6838572E0,1.7879189E2,4.51023E2,3.8691852E2,6.8754425E1,3.1987911E1,1.4447771E3,7.9951263E2,9.527118E3,8.044772E2,4.614497E2,8.47877E2,6.7463275E2,1.1763133E1,1.0843113E2,3.8275697E0,1.3424379E2,3.5220104E1,6.238586E2,1.0996764E1,3.1572852E2,5.888823E2,1.9582056E1,9.958112E2,2.64709E2,4.0708234E2,3.4671545E2,1.0426053E0,6.796621E3,1.1941351E2,1.2098399E1,6.110243E0,5.8424843E1,2.6636205E0,6.844595E1,7.6832666E0,4.888246E1,1.6297924E1,1.3665096E2,2.4616177E1,2.0302315E1,8.0625435E1,8.744352E1,1.6482564E2,7.716179E1,1.4340004E2,3.1199991E1,8.363032E0,1.7209981E2,6.6920705E0,2.5068509E2,2.0033794E2,3.682754E2,1.8643118E1,5.6071938E1,1.2682487E1],"tree_param":{"num_deleted":"0","num_feature":"7","num_nodes":"111","size_leaf_vector":"1"}},{"base_weights":[2.3665603E-1,-4.4345176E-1,4.91383E-1,-5.1368743E-1,-1.689729E-1,1.7375527E-1,6.1005825E-1,-5.338902E-1,-3.4537822E-1,-5.836833E-2,-2.2954021E-1,2.3700665E-1,-9.482225E-2,-1.1432351E-1,6.4142406E-1,-4.105096E-1,-5.453045E-1,-4.5215434E-1,-2.7913475E-1,-1.3936311E-1,7.7522025E-2,-4.1298452E-1,-1.4079836E-1,4.2922077E-1,1.546672E-1,-3.1498006E-1,-1.602257E-2,8.117603E-2,-4.160813E-1,5.383686E-1,7.073257E-1,-4.979938E-1,-3.3529168E-1,-1.651471E-1,-5.0853497E-1,-4.5810696E-1,2.1136282E-1,-3.754064E-1,-1.497783E-1,-2.1773647E-1,-4.5077108E-2,-2.1077052E-1,1.2099505E-1,-4.354062E-1,-1.5522875E-1,-1.9813608E-1,7.00075E-3,1.5092136E-1,5.407683E-1,2.8077883E-1,6.5960206E-2,4.955788E-1,-3.3970466E-1,-3.7262715E-2,4.9143448E-1,-8.915958E-2,3.1070557E-1,4.4305694E-1,-5.128733E-1,5.762173E-1,2.1870735E-1,7.149382E-1,3.690483E-1,-7.498795E-2,-1.5697463E-1,-1.07888624E-1,7.40321E-2,1.9691104E-1,-1.5312275E-1,-6.563336E-2,-1.4303268E-1,-1.0261883E-1,1.6144311E-1,-6.8092704E-2,-1.320573E-1,-1.7363979E-2,-1.0756484E-1,-6.95684E-2,6.4635314E-2,1.5839182E-2,-4.62508E-2,1.991505E-1,-7.854227E-2,4.5214657E-2,-7.639099E-2,-8.263448E-2,-1.3704212E-1,-8.486022E-2,1.3164178E-1,8.154882E-3,-7.751784E-2,1.1346681E-2,-1.01715185E-1,-3.38649E-2,8.0870196E-2,-4.946674E-2,1.7596333E-1,-2.1432169E-2,